solver_type L2R_L2LOSS_SVC_DUAL
nr_class 6
label 1 2 3 4 5 6
nr_feature 17588
bias -1
w
-0.000135473236529065 0.0004891571409900237 -0.0005863731749967564 -0.001116606472763308 -0.001083339997561004 0.0005200281490328239 
-0.001484669451998803 0.0004668541812324466 4.955773924450018e-05 -0.002971904678169457 -0.001642862480054701 0.004175138360116084 
-0.002207791238187793 -0.001309865443449295 0.004253695234504971 -0.004736655561679161 -0.001703248859567652 0.002927068892148354 
-0.001073892328512494 -0.001836661884535646 0.005476465248446817 -0.006164325120901442 -0.001782308381500827 0.00142923248101572 
-5.468446327438737e-05 0.005733853690197088 0.008274411972169824 -0.01033662660761371 -0.010335310087491 -0.001074904472658079 
-0.00211521419851096 0.003534758136701107 0.001606244474456038 -0.004672258482592856 -0.003738715564882756 0.001810443729663678 
-0.00278817826865038 0.005640358059015439 -0.001276552008828738 -0.004326705959867808 -0.001837935711093299 0.003542313312831764 
-0.002681349213257724 -0.002303229886130832 0.001460326156650356 -0.002673021612947009 -0.002292039568223994 0.004898438980537602 
0.003874414702657593 -0.0110306494284839 0.006687511022229497 0.002022554085107976 -0.004255674876715563 -0.001447741665389992 
-0.002590299138957879 -0.002561209050893232 0.005362043157448671 -0.002339751106443127 -0.003313858178198539 0.002021832798803902 
-0.001661625172614317 -0.003861186069841055 0.003885102003519983 -0.003075098794108948 -0.002165298511734169 0.001487910356856556 
-0.002576148603830685 -2.159858950936381e-05 0.00063751640455417 -0.002417549196835711 -0.001546508625350001 0.002448148306143834 
-0.007078760359641502 0.006738028146673515 0.000494388278689274 -0.005066482847076602 -0.002495228610930628 0.003886278110773838 
-0.003360734319078226 0.004910309445178541 0.0001281927436933384 -0.002474608104012475 -0.0008305850273148957 -3.009160956569103e-05 
-0.001271590833481435 0.004151487000069482 -0.001317388927130088 -0.002055033015054213 -0.0004138025050285199 -0.0007865026670854945 
-0.001988640771292805 0.005089198971511585 -0.0007655423388407657 -0.001054934118683796 -0.000831533021063811 -0.002912519388284364 
-0.0002563533851079435 -0.000273279014485455 -0.002862193453820462 0.001397469893819577 0.001445465738497137 -0.001833422478390225 
-0.0008659687442098495 0.002003998473005092 -0.0005393339860344162 -0.0003578071236292685 -4.344197976737378e-05 0.0003243667465122707 
-0.005300974522731362 -0.0003366501927599139 0.006551328626291688 -0.0002434260166175583 -0.005143093003063566 0.001643090483696238 
-0.008482675245551324 -0.001704689439723637 0.008370667434325718 -0.002138966980783856 -0.003730799396117822 0.002136408320009084 
-0.005298622984383635 -0.001150094813014435 0.001194240382969663 0.0006058382066190611 -0.0009515339651625563 0.002175873887005269 
-0.003541128885353195 -0.001453396726061357 -5.35511315438882e-05 0.008081720131879945 -0.01246541242453191 0.001095605328702908 
-0.004023307143806228 0.002042037056103977 -2.0541128870389e-05 0.003760200563063089 -0.004210669547462054 0.001693652055114749 
-0.0008809945297585599 0.007631516590034755 -0.001507341117511106 -0.004587565991386591 -0.005980303178837928 0.006882734513241593 
-0.00419795364110982 3.993823313027342e-05 -0.00193552209433376 0.001305436410137647 -0.000220361473848899 0.005953675650459738 
-0.004701610149836642 -0.002132084887799387 -0.004874269917694342 0.008833738492383279 0.0006008372090627892 0.002268010096684326 
-0.003532628908425791 -0.002173881294554348 0.0001461621477649765 0.001641393704606845 -0.0003320054636210463 0.001446669870764329 
-0.006995901020320287 -0.005031184706729482 0.00629053267555659 -0.001406876368709735 -0.002879730456856277 0.002006370449039388 
-0.01215264766873118 -0.0005693897301897435 0.0007112842643480474 -0.002840697767282905 -0.002965895805542379 0.007940149385565075 
-0.01532488766547144 0.01170646607467368 -0.004638784876453199 0.006004417702610156 -0.001853168689025901 0.002742938340919799 
0.0005918460483162068 0.005115004488472274 -0.003782436462935186 0.002888008902148131 0.001529741807112458 -0.003187176916424951 
0.00115090676069472 0.007417557524300986 -0.002430479294499934 -0.005275597253484893 -0.0004834673345302384 -0.001139381845284472 
0.0001781532318552756 0.000834265902922451 -0.001672919682914931 -0.000350559803288273 0.0002320972269645852 -3.268060925040422e-05 
-8.562019550656453e-05 -0.004608590463230529 -0.003308941307154087 0.004527995913610406 0.001594717516618253 -0.0004311063830817833 
-0.005225853510343621 0.001874081689796764 -0.001508008496360451 0.003901176546885767 0.005065328070868146 -0.001382094748321768 
-0.005831920586444122 -0.001973554616086622 -0.001725824996236233 0.006672274306344342 0.001349135506359703 0.003786460518091832 
-0.006798762743737763 -0.004373538769636163 -0.001756637273448058 0.006729092983139725 -0.001724597888356158 0.008504197096113997 
-0.005787712425340436 -0.006844292360444831 -0.002252320426899152 0.01065724446584353 -0.001418042465998851 0.007675137285198474 
-0.01161231650757427 -0.01711827654527385 -0.0008317074418963402 0.02976559088197677 -0.008207511878378086 0.007344503055766655 
-0.003386709560245628 -0.01418628821942989 -0.002242716857743206 0.006740058256829481 -0.0006008037522668527 0.006574630029119651 
0.0001972782786124305 -0.01264417041612986 -0.004828834543343262 0.001854843994541678 -0.0007030657429701256 0.01278050896022782 
-0.00533040082499079 -0.00388383073201503 -0.002995468184877266 0.005556807506044004 0.001123788469931265 0.004965019562747053 
-0.007099278205757884 -0.004740377531400613 -0.004640452765293501 0.01827508631579313 0.001665582206284247 -0.001159371838137811 
-0.005828071602529459 -0.002559435175054573 6.66959497103598e-06 0.007123353825069894 -0.0003892881883461777 0.002468016003255025 
-0.01304314814213481 -0.005080324028434528 -0.001367952655176485 0.0053430683021981 0.001815809910287776 0.01248569117130137 
-0.01490877964068225 0.001280197590851428 -0.002524033260953188 0.004003518209620561 0.006203910287116319 0.008190441275228383 
-0.008852318378440653 0.003813892973018871 -0.007159323105244026 0.007509983296774255 0.01269080960806547 -0.005911689254135985 
0.004771823640235063 -0.009595528787227933 -0.003903717413189489 0.00187252735397856 0.004599548802512457 -0.001917694076261993 
-0.002384035677480415 -0.004555240040869146 -0.005083978041189555 0.0016000718389983 -0.0003689371492441302 0.008302686058313403 
-0.006921071618540022 -0.0005589225413276451 -0.003830686586266303 0.003467182952111658 0.006458166834687382 0.0007466072992861505 
-0.003519370068215932 -0.001587752963691983 -0.00555481835927478 0.007751994648187975 0.007215163048652658 -0.002893302052577314 
0.002950681993637235 0.0006199161998161395 -0.001523306598372389 -0.0009815606542668432 -0.0009246752755737084 -0.001007575493756771 
0.0009089518985426715 0.003383851143123511 -0.002252720335426329 -0.002503608765933326 -0.002731042391137192 0.0009334907275779866 
-0.003634846418554896 0.002217614001795102 0.00385271933566313 -0.005777383324053841 -0.00460596511097921 0.002473302323061206 
-0.004620628294570132 -0.001055637427343425 0.008726625907026952 -0.009068481583514783 -0.002062878508468181 0.001020255717920507 
-0.0004130051284183343 -0.003082127801641528 -0.0005919975700093488 -0.001585937778155028 -0.004531168936930101 0.0004083345259414675 
-0.002701448312553372 2.229863371445236e-05 -0.000231495540652972 -0.001251713639768415 -0.0008071536966282604 0.003203050221609491 
-0.00422573800418182 0.01678108227783641 -0.002416836924385948 -0.01210689370702241 -0.003689279035855312 0.004222029449157663 
-0.003931302584218432 0.003551849036417262 -0.0008210300677135486 -0.005948002177677496 -0.004036041409555343 0.007198659859731157 
-0.00371799471030601 -0.004913791698580291 0.0006677104170295148 0.0002919010578061499 -0.004954517666061795 0.0046848306594687 
-0.009212805577828154 0.0006367531427400788 0.003242654734783708 -0.003074110540814419 -0.0005336835834093808 0.004984636405581336 
-0.003428215260804933 -0.005530146584963251 0.009723660571545473 -0.005854247766318193 -0.00108945245508948 0.001497608908464143 
-0.005198271297703166 -0.006011952838572964 0.009365267614564767 -0.008647316143005125 0.003154963372176509 0.001636928690348524 
-0.00981596721426174 0.009236906894390384 -0.005495327550920656 -0.001685579291176768 0.001608399966674806 0.005271630828226195 
-0.003512412307734109 0.01202854276634127 -0.00517823727476803 -0.003178501567144039 1.559171441602553e-05 0.001960720510045035 
-0.00123419863988625 0.01573081600687667 -0.004576754824840077 -0.008221272407120334 -0.001737199309835045 -0.0005777769292763154 
-0.001841890384984338 0.01817675985533553 -0.004597135527128527 -0.004177506441065807 -0.001503292387903446 -0.008112710826546991 
-0.001787493957886465 0.006355731317232098 -0.004792831285710599 0.002725847896984668 0.0003740803878646635 -0.007246917528872011 
0.005385444351949914 0.003960147235355578 -0.002360092012375315 -0.003271717482781496 -0.002023187418373121 -0.003972214534646088 
-0.004332085581627476 0.006169641704832489 0.003939945015751032 -0.004057588758158274 -0.006307616437269364 0.002342830173190391 
-0.01906647482995301 -0.005533446785407147 0.01013837620312544 -0.006435565836987784 -0.004919212717865195 0.01167283211911898 
-0.008072017661097729 -0.01181553591857688 0.006881314948737934 -0.004905992700421717 -0.003152833304889227 0.008605192551908673 
-0.004033776016250798 -0.01465445467988969 -0.006399626552209101 0.0114976149344295 -0.004965836168040337 0.007379998223988092 
-0.0004484825154672742 -0.004706000981180681 -0.005152774412784083 0.004651120882646303 -0.00319125361199365 0.003577447300503131 
0.003662211754522113 0.001188601338959653 -0.005714467606062553 -0.004194150900507303 -0.0004753047574121717 0.001745650076856177 
0.008881475218023665 0.0001273069728987717 -0.006413862637545253 0.001232674037918453 -0.001495615902200892 -0.005261902984220491 
0.01043734621227889 0.00849305643184844 -0.01163377116286007 0.007466485207294746 -0.0001139862233615317 -0.01480361180650539 
-0.004598813703240965 0.002508332229933071 0.00438561174788352 -0.000232802248883287 -0.007163225464800549 -0.0006596535724207185 
-0.009599890010418419 -0.007216922206638093 0.0106278785462051 -0.0008895126679956282 -0.006537695367306357 0.0007553295251089774 
-0.006103732610193239 -0.01140359841661974 0.005734486911527473 0.0009144905410577788 -0.004398747460026265 0.006853721497169108 
-0.01041874695403645 -0.01489613331888908 -0.006259359410110838 0.01339022904970059 -0.005655222964565363 0.01748868725578882 
-0.0006525938761477142 -0.002706797609407295 -0.003597865095277418 0.003513677244324416 -0.003944338027535473 0.006043771550172302 
-0.006774420977109045 0.01440802456921778 -0.004449034907501146 -0.007945067907960464 0.0004742581656186443 -0.0006075373812603195 
-0.003529813200393631 0.008123008096087847 -0.004810374498913902 -0.005381569851376847 0.002654966357379667 -0.004082681368309028 
0.006083697755106357 5.223834966019893e-05 -0.006168817035495072 0.002279434842816219 0.001398390041513704 -0.007728446843324146 
0.0004728504116434563 0.001565349430715692 -0.002877119527121458 0.00370537180800119 2.267383134347838e-05 -0.001756334366037194 
-0.001590154088374497 -0.006103929577932153 0.003862004781305201 0.007155061468017077 -0.002103071012591208 -6.86374921731137e-06 
-0.005632154683823922 -0.01021340784732855 0.003277457953939546 0.007009753073438276 -0.006276215184375363 0.005779461043117272 
-0.005066846487817761 -0.01402864051008689 -0.005413602943379546 0.01465540407391987 0.002739767894552306 0.003080056283514777 
-0.007004804708671567 -0.01255986634780776 -0.01328611256433839 0.01405833984430554 0.01596693596664649 0.001906062970953367 
0.01115532487924567 -6.365340387759537e-05 -0.009067147883368168 -0.01026785567307943 0.009522262730336841 -0.001814135790558145 
0.02258814709053494 0.0137681746035775 -0.01132221977406285 -0.02761814873389822 0.008240591633601456 -0.00215305591676327 
-0.0008632671818791486 -0.005625501352475666 -0.00910719885689785 0.0004190813014813174 0.01630096669872834 0.003653621346926412 
-0.00937073760224196 -0.01435564318793649 -0.01265128134561584 0.01135625074914796 0.02187381979400352 0.005084969373864312 
-0.002690419883573811 -0.009301264326583361 -0.001070642307263591 0.008862189389151036 0.004254511193929309 0.0004937742850506449 
0.001038740138400261 -0.01103158865254131 0.0001450487793211168 0.01291871511131981 -0.004072114122927304 0.0003615202780273303 
-0.006182266957089026 -0.01652519734146075 -0.002745827125715111 0.01453843217999885 -0.007170767574502451 0.01274496053638002 
-0.0009987870723589302 -0.02490838817423198 -0.01063935005053392 0.0168903080846006 -0.009152872938934044 0.02038777887008934 
0.008401146873807455 -0.009030985431504296 -0.009412082286961601 0.00139205345884412 0.002566070521771168 0.001445407753715218 
-0.005004005438405311 0.01244538715389153 -0.01390185085076687 -0.00913292782219566 0.008186993507910653 0.006842554458064936 
-0.0005065898182864068 0.008705067058992388 -0.01052817947122642 -0.0001135833513168788 0.004974620726790883 -0.001513578430587341 
0.01124681097686496 -3.583179529619835e-05 -0.008284388504793776 0.002486531778100883 0.002033936005549046 -0.005458510315623595 
-0.0008295926396760683 0.003715428531510933 -0.002423176913425998 -0.001036471231722323 0.0007405236273686637 -0.001549114473069977 
0.0003929703991732649 0.007430734804255308 -0.004378801694847815 -0.00121264469676805 -0.002052622449428059 -0.001280827886241229 
-0.004339239950231327 0.008385122666694677 -0.003111484462432455 -0.0004956798197502112 -0.000330733740395022 -0.0001651969944025242 
-0.003882715126885504 0.002530134623268627 -0.0008250043747607891 0.001365321523707158 0.003033205093343317 -0.00170938225436011 
-0.007556717499494986 -0.0006421691012382072 -0.005249935686195401 0.009327181266746733 0.002770696883658924 -0.0003459029710102489 
-0.004113151274685992 0.0009739496782465221 -0.00845480857238841 0.008965223360599069 -0.001005531917862288 0.002222685501797593 
-0.00298472324182926 0.009877602899219589 -0.005457071038880771 -0.004153237533358264 -0.005302570554369293 0.00590108714882724 
0.000895823187329198 0.002695819475606352 -0.0006564700540944139 -0.005630746488746569 -0.004874005758530091 0.003752354517036257 
-0.002741874919349889 0.003987445790290222 -0.003241210257238634 -0.003895383690730161 -0.007560909249389151 0.003180058294645712 
-0.009154724667087513 0.0093616254340561 -0.00220401652688276 -0.003326311002707809 0.0005286091999558421 0.001540592652470639 
-0.006135140503874821 0.01249389039330908 -0.004005573989555435 -0.002348511257954751 0.000801098280913081 -6.126300381531358e-05 
-0.00585918867095819 -0.000995687001303751 0.003337600724988469 -0.002567149394897908 -0.001896093449613333 0.004828868249385021 
-0.003312678413418497 0.002093588215951685 -0.0007732730523680912 0.003647968023362071 -0.003132718803191204 0.000308035722873272 
0.002204289507671112 0.0009671340892129506 -0.002309860668549196 0.003373955312483102 -0.002955865101202165 -0.001198155268673721 
0.0008158134857356849 0.009458050106851105 -0.004490118703370928 -0.001958621257096047 -0.003111220375449769 -0.001774789527597425 
0.0008808882140656351 0.0168399088444155 -0.00602370950673603 -0.004922022570848707 -0.003032396797769957 -0.008704511485381386 
-0.002471123577708692 0.008364414130526004 -0.007176679035349185 0.0003925760945190422 0.003173612396798651 -0.008892438806427747 
0.002353268857222854 0.01224370426119856 -0.005154592547901755 -0.002386922553670565 -0.0005488478858882741 -0.01031790698117661 
0.002062804956743986 0.01900777393881592 -0.005265580914906613 -0.003512939906143226 -0.004678939309602754 -0.01003500946063921 
-0.0006227424102049565 0.005531981740871258 -0.007507258809118508 0.004398787067110419 -0.001272221520931512 -0.005867582219252129 
0.002117394224964064 0.001730790372965996 -0.002887742214809837 0.0001067740186363842 -0.001303248561148719 -0.004505603392047568 
-0.002184042339160651 0.002400756104265042 -0.01102670822245333 0.01161910957622136 -0.001628332041665668 -0.003188254639437622 
0.0004995468480598897 -0.003760848452297111 -0.01227837263383277 0.01081818088611065 -0.004442066823021098 0.002069780688785648 
-5.942866774750877e-05 0.003771165346248767 -0.01098487134135106 -0.005439405630453874 -0.006406368857815186 0.02131193128387937 
0.01494785715826964 0.008017897570704306 -0.01261472393424564 -0.01377373926448848 0.005099047976241624 -0.0007589937679181331 
0.01259704252130243 0.01445584379101001 -0.01884933569960709 -0.006661426735315989 0.02132039433012654 -0.02275687041108684 
0.007921138497417964 0.01857981063036838 -0.003298788871177543 -0.008013886102032731 0.001191911182182869 -0.01584171020382105 
-0.003267847306354387 0.001973036783304057 -0.003906762824432626 0.00351555399006384 -0.0003426037692498797 -0.004603834206557267 
-0.002565546284862283 -0.01889786066464315 0.003791131329400123 0.0008805424931635818 0.004631992460951808 -0.001110492999248173 
0.0003001803933939467 -0.01016252583212702 -0.006366610300857237 0.007456558312760904 0.002652159825396491 -0.002178059646644684 
0.0155759145434949 -0.002558446177828921 -0.003549560036528163 -0.001177115378896946 -0.005099250699248844 -0.007130909901901049 
0.007466282003660753 0.007406352980330566 -0.00368333228116957 -0.00773794726649634 -0.007701424881746572 8.462849873565858e-05 
0.0009904523031359037 0.0114431214951938 -0.006441487449780505 -0.004822378707618114 -0.0009187855101882099 -0.006940518128235168 
0.006484867991032425 0.008127387173390741 -0.006407251218983283 1.984416654770375e-05 0.0001768387209385151 -0.01065266967211165 
0.0009745932842257081 0.001728719159195704 -0.004784110015221949 -0.002709788200164003 -0.000220858164957497 0.004701160374634012 
-2.379467170814634e-05 -0.007682070465592806 0.009082824227404713 -0.007226028937402564 -0.006457436224826635 0.008493419382849117 
-0.0006004960564049111 -0.01774194829027239 0.01445740404696696 -0.006473221740749544 -0.01035214770512348 0.005087615289099998 
0.01685204750210955 -0.01820953272151592 -0.003990456321233655 -0.0001832891159122633 -0.007633941542127047 0.001477403730168211 
0.0171406941643962 -0.02513196271245091 -0.00224168557568729 0.006269942716652437 -0.00651533527392556 -0.007119487476745156 
-0.006252052945764886 -0.00823771251002524 -0.01256442157510858 0.02090990608487958 0.003094151700843155 -0.0003838045605915658 
-0.01561855389381252 -0.01092732293687893 -0.03316361023346028 0.04506989987197096 0.01541684890415007 0.001269940953298747 
0.0009619227019391377 -0.003122711875370936 -0.01532497986744502 0.001163587302426752 0.03716216317256812 -0.01626931390682725 
-0.0008665330424892647 -0.00875393708216487 -0.01082878408885906 0.0008084943946330576 0.02905826185260097 -0.01891141008914265 
0.007009242005347856 0.00146112118096087 0.003860869343770763 -0.00437889635909485 0.006531994839228428 -0.01275232822456622 
0.01046232842796524 -0.0188948153560001 0.01829379695658898 -0.007022356338670147 -0.008932575040306463 -0.006818862550628063 
0.008484548257767614 -0.02303054961328223 0.005904871971204221 -0.003076519934187862 0.0004809381291953187 0.004111852386788469 
0.02164828296524997 -0.01892054887643591 -0.01205870938853843 0.01021404128190825 0.003430186678961976 -0.007643656406475784 
0.009478113452412834 -0.008744734178813976 -0.009465858186426842 0.009237263555806221 -0.0005209131396398858 -0.001730654818887989 
-0.01756709106906545 0.009368986342709724 -0.007983716379205466 0.01265769483693638 -0.007291901086034764 0.01550081701680161 
-0.007160417546522322 0.01304634496744201 -0.00547948758841234 -0.004087700594150248 -0.0007564773735317249 0.008171619359559769 
0.01436120191959037 -0.004246701684595026 -0.01473357700075301 -0.003641738113086974 0.003823258805096376 0.007480347931414185 
-0.001442090235273052 0.002610621208195558 -0.0005273663033684475 -0.001266740773508927 -3.284442056176902e-05 0.001038176223126479 
-0.006917358172093997 -8.406682931242797e-05 0.007571456384847981 -0.00186354971153106 -0.005683683148674568 0.003494292659342058 
-0.01136936348846978 -0.001187987208011287 0.009439684488825598 -0.00376109919273883 -0.004058951607068273 0.005065437854546152 
-0.005582219251256458 -0.0009277546386289397 0.001196204495680033 0.00031931801389081 -0.0009986025011898335 0.002315272507021411 
0.0006015542859137479 0.005313664357882416 -0.001431158180796442 0.0009937242852890919 -0.01069279193855506 -0.0005123639429166589 
-0.00143061802350045 0.003368908007318369 -0.001369973430230173 0.002037317679042838 -0.002789457394585506 4.855817550805352e-05 
-0.001263048283613296 0.007637495259581083 -0.001533833256743621 -0.005065499491059737 -0.004964601200608917 0.006002360000409225 
-0.003986937539884791 0.0007640368687676759 -0.001972278334804656 0.0003012731721789122 -0.0003603655124841004 0.005619417329879556 
-0.005448519285626327 0.00111454560590336 -0.004486837913894271 0.004959757261263146 -4.077591759428763e-05 0.003776601043910838 
-0.004059496210718133 -0.001919140806335834 0.0005576193190716152 0.0007787358617195929 -0.00148424660641778 0.002566800023917011 
-0.008710462013983431 -0.004604730353064388 0.008583481917065925 -0.003086134654848173 -0.003677687142263202 0.002792429947824668 
-0.01386156926948021 -0.000374401959043069 0.0004286768711153434 -0.003857142611245739 -0.003609015894052838 0.009214824675612566 
-0.01380359260901597 0.0146421413285911 -0.004274226445074468 0.001667076015669566 -0.002913971225534153 0.003486015097720414 
0.00162629811405429 0.006396188031410991 -0.004425538304991128 0.002602289525293717 0.0001464379400698771 -0.003150203718728402 
0.00267939131793144 0.007974728260146981 -0.002790249232047243 -0.0055703226045109 -0.001509446906354233 -0.001863373680962656 
0.00244725339365345 0.0004149907872135138 -0.001839977373440836 -0.0008419867592657033 -0.0005304332378678466 -0.0007667781508207167 
0.0007534843945638459 -0.002649259089267224 -0.002764349274662987 0.001276103151129253 0.001613737044169929 8.427138526908021e-05 
-0.005527938686732025 0.002207469108089711 -0.001633866500805822 0.002060660803725542 0.005816186452033201 -0.0006677550280758528 
-0.007266694747703376 -0.001197450834858698 -0.001651599229591496 0.00357660535662531 0.00197820078417424 0.005275251608384733 
-0.009412825266271321 -0.002868088510989862 -0.00107446323748299 0.004170012440308026 -0.0009471734668302508 0.009211250590548703 
-0.004745906607319278 -0.004841074714851064 -0.00234993800949103 0.006219374750988763 -0.0007035560917772567 0.00714179547182719 
-0.01103477959998352 -0.008318447268108051 0.001226016385529841 0.0178984900730059 -0.008743405712147101 0.006615681539020139 
-0.002406380140068989 -0.009542060144554117 -0.002482934468839719 0.003040616403890105 0.0001977318382877078 0.00461432141937609 
1.401421823434831e-05 -0.007830553610007205 -0.004888066050426966 -0.001796878429826008 0.00118461757225758 0.01048104083040551 
-0.003624939142985703 -0.0007146210934787056 -0.003142506556982849 0.002205848231311014 0.001991722747136062 0.003096284321562213 
-0.004039126391984136 0.00177696628338814 -0.003950971428357253 0.008072119225796658 0.000763811158018466 -0.001185073514107798 
-0.004603991004895096 -0.0009506760566363635 0.0006032750524982466 0.003651244115103812 -7.486231967704005e-05 0.001486296092313692 
-0.01263397440555748 -0.003692012055188894 -0.001435167309179943 0.003125455397836824 0.002168460125126385 0.0122410842671557 
-0.01624594217778548 0.002351583938681477 -0.00296897273252407 0.002534503988891293 0.005769843862942489 0.01061087237757286 
-0.005488469134980782 0.005673986709284283 -0.006003844485014682 0.00325353755397846 0.01196220794520421 -0.004643184976974879 
0.008908612038177314 -0.01004584307196772 -0.004460240747603281 0.00104769347693746 0.003410899950161827 -0.001314711131758384 
-0.002524241135740023 -0.004468865630506023 -0.004913870930873199 0.000865495095336665 -0.0005659848669538767 0.01019157125367454 
-0.005946425502607094 -0.0001225769788772983 -0.003916371304988907 0.002065041192181699 0.006547078705914215 0.0006325493132571969 
-0.005058173078025214 0.001455447755242246 -0.003956541562193242 0.002846385643644553 0.0090765755985948 -0.003292622432194974 
-0.002569640483716406 -0.001360538552901074 -0.000823195252238958 0.00297239213260166 0.005114644304754751 -0.002331032773962679 
-0.002901055691395029 -0.0002885286105209596 -0.002744465609190386 0.002544889520553435 0.009068841329720793 -0.003015085942455648 
-0.01159310337756309 -0.000243247672732321 -0.0007966035182756229 -0.002551982863579581 0.006321415865339592 0.01201253726214873 
-0.009224359760283208 -0.01758062911640425 0.003124911753002673 0.003227471688757598 0.005077070612957403 0.01419602381397292 
0.0005598083725002649 -0.03180838405277255 0.01024066274988648 0.007186799996561525 0.0006003407901297816 0.009999531842328531 
-0.007297776217218403 -0.01673898014757786 -0.003067503021668179 0.004261010388434685 0.007345117234800217 0.01570466651235214 
-0.008425839354553193 -0.003468820875374008 -0.004547728980537619 0.0005828704061052179 0.01128602792681579 0.007297674430731017 
-0.0009878315813667653 -0.004241442181876458 -0.003885528310793119 0.005881583106751242 0.009166685874787315 -0.003782174973634619 
-0.006722230098036398 9.721057560832138e-05 -0.007258271858027379 0.008173363467700959 0.0128987977208547 -0.00576929775303111 
-0.007364786492497848 0.00515483079111874 -0.006332680318315243 0.001693605678643629 0.008177702410825443 -0.0001363883635463496 
-0.01149724994994122 0.007816566406765405 -0.01029399016438211 -0.002268963358345847 0.005833596988020785 0.01262875459558015 
-0.001808748988774761 -0.00543133586873827 -0.007471644034536712 -0.002797576838273795 0.01050632540518381 0.005561487052785888 
0.0308549057312731 -0.02012353428835176 -0.009951052241002453 -0.007523353423150326 0.02011260883622381 -0.0144050128751364 
-0.002414555808182314 -0.003258015768368121 -0.006372156198257054 -0.001567738745699979 0.009669920461856786 0.003551138110246508 
-0.01474927361161817 0.002649031691962494 -0.004572374219128387 -0.002165942150839152 0.01260260062680692 0.009232479784648915 
-0.00678393531763913 0.001091795451355962 -0.005175732739040478 0.001147890805903346 0.01300400734520046 0.0009666671939606735 
0.002476256706867444 -0.001392319406754172 -0.004426058881671682 0.003620954056469023 0.004778030895054146 -0.002711130147801344 
0.005515798422547474 0.005111382990627068 -0.002880586376271097 -0.004111623802882324 -0.002359140937834173 -0.003603233325317598 
-0.006333853466137966 0.006331368275834468 0.005886076783441319 -0.006477412468469728 -0.008246455309632878 0.005535706186716566 
-0.02136482206032999 -0.007483583273573611 0.01398154219924888 -0.01033344359270244 -0.00809472394535205 0.01724773576704198 
-0.007475797469512669 -0.01204770364030837 0.008306770629824128 -0.008021576431406548 -0.004352965180558652 0.009528075898804656 
-0.001652807555799783 -0.01019048992535304 -0.004753494770352822 0.004577727500671461 -0.004708284689267938 0.006182849462386135 
-0.0004170621035780898 -0.003678226360925915 -0.005057245511015805 0.0035067596523869 -0.002675822500772284 0.002845298438897739 
0.002720301690269746 0.002878587067175481 -0.005595839282957117 -0.004919808569384839 -0.0003268177208342928 0.0009183779369932231 
0.005058330466361837 0.003565898197925106 -0.006808754261490805 -0.0001634182008544162 -0.00132835623387295 -0.004321013275698636 
0.003036630339346594 0.01742532968635542 -0.01148259182066575 0.001002770572471023 0.00011373717561883 -0.01177655211462631 
-0.007161957997171526 0.004014236115329659 0.005169429041449474 -0.001837776771212401 -0.007580798807073501 -0.000363978650776651 
-0.01018220366492409 -0.007092008209143172 0.01388630990790259 -0.003580193254681522 -0.007492987623296703 0.0002399602339480579 
-0.007762213311730196 -0.009477033003869113 0.00657616877265707 -0.001849902322087492 -0.004539080915585678 0.007850422897023458 
-0.0105632774189625 -0.009471177443083695 -0.005358622184470974 0.007349862887586961 -0.006986767958881102 0.02004037877505224 
0.0001627941591400678 -0.001422731379491094 -0.004470117181477331 0.003392830628505582 -0.004335302000305884 0.006237429083779305 
-0.007241757673043982 0.01608392373223114 -0.005004776369364293 -0.00909537109548225 0.001134466987130865 -0.000827087493872685 
-0.0007745244532736328 0.007363690592642837 -0.005427754040883821 -0.006436045382528331 0.00260938395623668 -0.005234913488664786 
0.01332979409956093 0.001587294241601723 -0.005123664111659394 -0.003928589416350994 0.0009877747218580233 -0.01021710336353242 
0.000401711612776564 0.001778615477656832 -0.003035220231934792 0.002319236093177355 0.0002218545424898401 -0.0009074447753280575 
-0.003088692008739305 -0.006342304456764404 0.004658925343728932 0.004659440652586821 -0.002760351992840927 0.002009128474769708 
-0.01271913791547278 -0.009171148741256196 0.004277201732742573 0.005681207056971965 -0.005544820256038738 0.01085179935775086 
-0.005894525467710996 -0.01218417645311353 -0.005949150415832254 0.01158125464649953 0.0016638611832806 0.007069218211259033 
-0.01114176962942923 -0.008283690034955628 -0.01010301383060403 0.009262504963051997 0.01422456554625485 0.004922347906157895 
0.008330378985812455 0.0007814031158754952 -0.008193457053172547 -0.01067138650139852 0.009285189682372848 -0.0009183621525627396 
0.01425828787702686 0.01780268088741328 -0.01066038193446441 -0.0272457306890732 0.009355263263831435 -0.00121971349382993 
-0.001708887966468474 -0.0001211576277082991 -0.008667268510615314 -0.003531336003810181 0.01396191385011948 0.003890587972356494 
-0.006881572194867938 -0.004866860747405015 -0.0106813321184471 0.00171616030868128 0.01612918802892855 0.004810050948565212 
-0.001419819265037253 -0.00510404586417135 0.0008687903293073839 0.003442495036448159 0.0009909826376547322 0.0002854527612301235 
0.0009409125962752211 -0.008951592645113519 0.001485934250011442 0.008931461618053967 -0.004507781454240961 1.013436742452621e-05 
-0.006297652872361262 -0.01304003815252001 -0.003471572040097701 0.009273091455651961 -0.008861252329868017 0.0146591314736662 
-0.003019511873552763 -0.01922215045907575 -0.008911633150581801 0.009070602728387068 -0.007676155936449497 0.02046530628020481 
0.01134235027375578 -0.008945063578912359 -0.009974779668799607 -0.0007938016933525693 0.005975229650707974 -0.001454961421667517 
-0.008246267057466165 0.01135188362664358 -0.01367395535687916 -0.00901018927582785 0.01563431602871936 0.004334978136109043 
-0.0004455941465494221 0.009764868541107681 -0.01080141770230862 -0.001750243305904357 0.005738131398534389 -0.002049267018967879 
0.007108770410534503 0.002877682483355644 -0.0057442139660089 0.0003905902023920863 0.003553145521784044 -0.006190226792767288 
0.002812233662905378 -0.004182414674611116 -0.007086539888967525 0.0004295380297237163 0.007200991618922004 0.0005839421623374209 
-0.004000435013120063 -0.003502763890652686 -0.01104664206772977 0.001356083727416 0.0177198352447322 0.001666934248761689 
0.0002528995390279187 -0.002492019870491263 -0.007044904696508699 -0.003560079497576185 0.01393764723611332 0.003149468730899277 
0.008545797083288478 -0.0004577341694410229 -0.006922842902840654 -0.007458107138708564 0.01672144811308266 -0.006723352021182541 
-0.01090364594641253 -0.002884500094597771 -0.01352017489706289 -0.003980386447425332 0.03844441830826967 -0.01266612708876326 
0.008596167900816356 -0.00875712116520122 -0.01053905008724349 0.002274078201706634 0.01373896196841723 -0.00766373820129704 
0.00832032871324713 -0.006734529065762687 -0.009619523026496827 0.001684906255456004 0.005714773995446728 0.001090247991119888 
-0.00443591183721527 -0.002422076155276496 -0.007109068849154634 0.001267910855120003 0.01296770216347375 0.001873724092654969 
0.009002378955722277 0.008831200030868784 -0.01523979626375617 -0.003311541577176681 0.01139866712855967 -0.006889793603034346 
0.002501982687117394 0.003491516225247209 -0.008060375082201157 -0.001380515000058475 0.006189725415076326 0.0008283657004660075 
-0.003343659043270318 -0.004598044379105123 -0.01160412176647918 -0.001639662390078594 0.002003589092999156 0.0180118023252065 
-7.381889304275436e-05 -0.02113929428662436 -0.009327880957567224 0.007826319533465485 0.008094154624241954 0.0103119710628041 
0.002932326960888191 -0.02549018731569192 -0.01187551632216746 0.01333660434739264 0.01237699097121379 0.005831811463671792 
0.005923344648955107 -0.02016317868207355 -0.008371707894896167 0.0066512914668263 0.006744422266610386 0.007367363095574388 
-0.001626297115786018 -0.006369887439737656 -0.007569127994127072 0.001289275628325588 0.004503515610784386 0.01114816951648571 
0.009872740135625736 0.001959979269214638 -0.005810581781124244 -0.003748318496734317 -0.002268277696437623 0.002865476392797507 
0.01135294315175442 0.006991848402191165 -0.00824886486711281 -0.004940435303403383 -0.0003594203104609031 -0.00326356194545369 
0.001684885160035526 0.01536814549962693 -0.006550162293596134 -0.004376122505804301 0.0001083655252365174 -0.01140154961771559 
0.002017675541215253 0.02004292572431425 -0.004920854032038242 -0.006162256160911424 -0.004308607349339099 -0.01038859452598744 
0.001678752329945 0.0005541394387150911 -0.00435553260643778 0.002277949893745532 -0.001245949414192953 -0.005817265090483082 
0.002979113683762693 -0.002188566334466198 0.0002835979902043796 -0.001990534855038351 -0.00135679989808903 -0.00461824301592814 
-0.002088948275187467 0.00378086171824994 -0.008447172922177356 0.005477216424976184 -0.0004663630491318441 -0.002871367694252311 
0.0002874455103258895 -0.004841523886063312 -0.01186729055322922 0.009827100805805134 -0.003322662538823123 0.002128783576596795 
-0.002660982284705862 0.005652999702863639 -0.01027724375491411 -0.005959699135901688 -0.004636805679408726 0.01837264128136839 
0.009309841233110946 0.01269399363882617 -0.01214643729680744 -0.01287091388907192 0.004585438050513645 -0.002391188362157804 
0.005005097039029987 0.02340710290884252 -0.01827104878850684 -0.01059140547887265 0.01846148783317335 -0.02035652472557999 
0.0031822746339083 0.02047681075816528 -0.003528213806387262 -0.008933333417031789 -0.001277424446278393 -0.01369193848995117 
-0.003519457346330785 -9.249328300197279e-05 -0.001309236445370973 0.0006776551045409695 -0.001623916130727692 -0.003708951940317523 
-0.002391073018625965 -0.02046470212271147 0.006756348245865716 -0.002409233737194361 0.005078236738888308 -0.001116123255942051 
0.002018863364644815 -0.007956382897058105 -0.005084450853016727 0.003026470237095255 0.003032241609458409 -0.002483690344640653 
0.01931497330302124 -0.003890225307133178 -0.003413409488613971 -0.001155540514694043 -0.005571044848646348 -0.008911475495643188 
0.00992246413411926 0.005874278996224164 -0.003688357727569172 -0.008826063521372496 -0.008222426128009637 0.0003836591239350096 
0.007015784638963304 0.0101926361011153 -0.007332414551816834 -0.006342089086813237 -0.002003403349853264 -0.009082986125035497 
0.008567828524695691 0.0125278383600628 -0.006605869054194152 -0.005273960046975491 -3.071535438807075e-05 -0.01267981559576046 
0.001535606889764712 0.001316655723045751 -0.005291491142701427 -0.002864706524041772 -0.0006591464051066797 0.004882600897203439 
-0.002087138697259196 -0.0120220203708048 0.01137032094443576 -0.00768336821366594 -0.00589432542391025 0.01045644324575588 
-0.001095264341437743 -0.02375201249619352 0.02054045941126869 -0.009229806273184031 -0.01030833151709338 0.00665789569914699 
0.01883764289433555 -0.01884977554343892 -0.0007566668011426725 -0.004012465894750038 -0.006105329909506322 -0.001481264217071474 
0.02375772757921615 -0.000129313119908278 -0.01507066573525652 0.004120698422042506 -0.004570124428591855 -0.00883000400644213 
0.003047516603994312 0.002643364740433236 -0.008415036450706605 -0.001050022401773509 0.00386395065407826 -0.001747502712992194 
-0.005590931358179093 0.01047383589932791 -0.01375893831668278 0.0001298251742485997 0.01452625884348738 0.0001462540708108347 
0.003687259143494766 0.004745847420675742 -0.01374294056321766 -0.006961794146692668 0.03399325969117763 -0.01603970559878189 
-0.002839516169862603 0.009470156395083897 -0.01701545075896799 -0.001940481550401077 0.02794321573951684 -0.01768538690439979 
0.006594544348202103 0.003491017929490324 0.005330520171925433 -0.005521229025441821 0.005314509711132528 -0.01262978978948805 
0.01017181235893827 -0.01950985383375902 0.0241094645924113 -0.01040282100916298 -0.009349284575541588 -0.007591797801995813 
0.009994227199993735 -0.02155674940965655 0.008368142949021011 -0.005891339876566789 -0.001213367101669873 0.002671436738274123 
0.02138006840986886 -0.01280902391557599 -0.008959447612628804 0.004398080092710606 0.002898342951916963 -0.009372352454147258 
0.01301309591323189 -0.008244690015247956 -0.009435940207773594 0.006930050212505386 -0.001874348298525305 -0.001956711276736182 
-0.01255895757115238 0.008622966497284282 -0.01167172164750602 0.006481420964707563 -0.004532059396586842 0.01668693100400967 
-0.005328806080307107 0.01401038265342412 -0.01344727066164884 -0.005991777836172789 0.007383669847862978 0.006433170567333932 
-0.000820556424396052 0.001861342482279159 -0.01116164493557027 -0.003449980463208351 0.01101648259306047 0.00633302158078044 
0.004602475882466032 -0.002007629907193571 -0.005325925358615874 5.592702264732585e-05 0.002496152093064774 -0.0003551874090744789 
0.002408462142521195 -0.005596004346149237 -0.006108729325541684 0.0008010145959046238 0.002408761895028474 0.003543439340964166 
0.0009937784275909313 -0.01103847114474099 -0.008560792002402383 0.01703720079028716 0.002799748875782954 -0.002628145348466843 
0.002903265830060279 6.434715091937246e-05 -0.01103954898130097 0.02235261235249365 -0.00109848047826035 -0.007771184829901481 
0.01512432412175024 0.01304336554698237 -0.02475259463156942 0.02646432597887172 -0.004428620137356722 -0.01922310200318894 
0.008263791387321412 -0.02436218015080436 -0.005130804203364806 0.01283575841779877 -0.002398271035103824 -0.01235976930317813 
-0.0009665784528021293 -0.04811651560256229 0.005810063676371255 0.01109667878016745 -0.002981945646344012 0.003387376188098363 
0.001651677985480642 -0.01780939279547073 0.01954765032801928 -0.003847297602612562 -0.01600254290975204 0.006913312756439835 
0.03036238716454866 -0.0005748116778346255 -0.01186048374081647 -0.002790562598808354 -0.01085074507438386 -0.006316861160012744 
0.007171356499005964 -0.0005316448155320524 -0.00162449870625426 0.001133508485926526 -0.004521562954660504 -0.004022379514122708 
-0.004737620480030989 -0.007504371515663589 -0.009091155578611093 0.01268413622321532 -0.004735449165358964 0.008473868707993265 
0.00456147656273717 -0.005504976387441897 -0.006139732300197041 0.002440222536388797 -0.008439124695963821 0.006203791982879759 
0.0143907696647222 -0.007103848985506616 -0.01492846172122268 0.01731087450819412 -0.01377701264198096 0.002372093268445681 
-0.003103650878872115 -0.003198041374927182 -0.004077124848696852 0.01251226821298643 -0.01310004341477236 0.006615967840364405 
-0.002653161390018052 -0.01111773008290515 0.005100243361225732 0.00879415357267652 -0.0155945346351853 0.008050342919881033 
0.009519274584213819 0.002923351569894634 -0.0008863160754215468 0.001300930883993858 -0.009492663046516851 -0.004677731403584644 
0.02030187087262724 0.003152258828931675 -0.009390761024216829 -0.002338483571735872 -0.003408218045453901 -0.008602121784098459 
-0.006127300619394259 0.002545468043176929 -0.001957744464055352 0.002335457595771669 0.0063543280229609 -0.0008608580497765509 
-0.007747419713506972 -0.001218357876397769 -0.002006551304930254 0.00422212033839218 0.002178865455764073 0.00516465170925629 
-0.009382976669386884 -0.003324183156702313 -0.001734496000213978 0.005005574859704536 -0.0006745074822886572 0.00888485921313009 
-0.005344588614461958 -0.005881095624564895 -0.002900439637264352 0.006862242698614917 -0.0004336236616715516 0.007850398401832494 
-0.01043289290636332 -0.006759722048930092 0.0073753005082963 0.0157180657631311 -0.01577286611630744 0.006952576930523579 
5.284593604794791e-05 -0.008147602659412351 -0.0008478165438091558 0.002205745783382586 -0.001666355462674849 0.001810576910501747 
0.001997285362301566 -0.007171604782791956 -0.005488218067660698 -0.00157096140054798 0.002933201845799546 0.007554538735664275 
-0.003605369819598738 -0.0005487454525449076 -0.003539870716538292 0.002471667554644744 0.003097094401142961 0.00222203641905489 
-0.003883999522953538 0.003498954598954314 -0.003664634011116327 0.007073258329361756 0.0007645660583406941 -0.001545441872676001 
-0.004480314693959302 -0.0008910125270020227 0.0008198750626806791 0.003706788670550891 -3.839815331903665e-05 0.0009461295407990766 
-0.01124773185224204 -0.003444335846541435 -0.00126545901723559 0.002616529972877074 0.002687439047079837 0.01008502737574884 
-0.0150685414981167 0.002745309911011602 -0.002760713878749834 0.001559840646497997 0.00557413863975017 0.009494387308504245 
-0.004897287247046758 0.006839247206262027 -0.005633187045205484 0.001414378925845053 0.01271379900369131 -0.005201708695192244 
0.009638894704184577 -0.01060516535452342 -0.004679061307627869 0.001027123194925469 0.0035149947030738 -0.001401878121929721 
-0.002100467578307074 -0.004384455306286276 -0.005159957044246606 0.0006388526697625991 -0.0004610213267636412 0.009818000228710096 
-0.00700999422953908 -3.911788758491062e-05 -0.004215031245140258 0.002038459507719207 0.007021662289921031 0.001192781204447724 
-0.005675919989667415 0.002907251050823671 -0.004424099836922166 0.002415818045711708 0.009537402335709431 -0.003266816296099655 
-0.00292657998519442 -0.001068600887391868 -0.001486576219878355 0.002824384265431767 0.004889327643804459 -0.002054075137944903 
-0.003892167424251351 -0.0006754938448534338 -0.004735647001097743 0.003567350818292071 0.01062186436905105 -0.003272426990262246 
-0.01294557019327822 -0.003235639673516989 -0.007609282489224911 0.0005977319205026635 0.01160919865451718 0.01216268569793783 
-0.009114696969953547 -0.01749703908037191 -0.004436150154823538 0.005369443368486412 0.009207673795961491 0.01486152015298995 
1.529973034219949e-05 -0.02636017534482838 -0.002660389983389526 0.009479675155689848 0.008294936108050563 0.00860860322762119 
-0.006020038428056267 -0.01368679570168613 -0.003131066554850729 0.003196789907726756 0.006041497487194579 0.01355672500419198 
-0.007489819067267887 -0.001060196968185664 -0.003726385685496449 -0.0004589800624553481 0.0091160140387288 0.006392434972692143 
-0.0006602657612540567 -0.002766289023644633 -0.003343615172380704 0.004566239216495907 0.008253061908443438 -0.003569558627669508 
-0.007962913166925037 0.002180365218308841 -0.006515454897155186 0.005830667349307178 0.01450623567456229 -0.005540645326621434 
-0.007506180718262524 0.00294008236771235 -0.005506138423853536 0.001185950359201504 0.009176381228738291 0.0004420302981601595 
-0.01035140119880624 0.005007731001418048 -0.008592890551510574 -0.002393077204022835 0.006335800424044666 0.01164994724372471 
-0.0008092785141477686 -0.004284069697631269 -0.007267965543554386 -0.003027164278663579 0.009124639209392152 0.004703538355590754 
0.03394471079286257 -0.01961271970149693 -0.009595718199578178 -0.007687035852304598 0.01701522894385554 -0.01559508653938407 
-0.001735167027291197 -0.002695328078633981 -0.00564250909283026 -0.00162494742381228 0.008539850263900159 0.002581035206018765 
-0.01494933213342693 0.002750273104258671 -0.004064299784990393 -0.002248323291796014 0.01078807224634087 0.00989097630785073 
-0.006594429851094072 0.001342455174016681 -0.004377816143705809 0.001159587972942197 0.01092281949478895 0.0009913341394064768 
0.001595654149690783 -0.0001151887320113874 -0.003720357555531134 0.003261141177678514 0.004112078070544877 -0.002844038810416115 
-0.002716611080007121 0.0001113439852903819 -0.001392316590687129 0.003713606977671526 0.0009648822454762796 -0.0001826540857271567 
-0.005125854140153216 -0.00292025767880668 -0.00392037017937874 0.004538160008165357 0.00149403140905212 0.005182725444815233 
0.006216595751908933 -0.006931335575376544 -0.003620305149044064 -0.00042642930212752 -0.00413186293035789 0.00755415451726186 
0.003038344454101534 -0.004340801345952451 -0.0006363158608307642 0.005310399734838137 -0.005312325703325704 -0.0003146952634922191 
-0.006181862864184897 0.007498545921032753 0.0028049219333705 0.02515051730731405 -0.01625549336933692 -0.006128670244906383 
-0.006455384010915831 -0.001929141599171873 -0.003264035064827074 0.006103395569575631 -0.001407432653859067 0.007719884167200373 
-0.0125670638674485 -0.002445732521721586 -0.001114950308498146 0.003520727522227225 -0.001538182634975438 0.0122725326799807 
-0.01119618729148231 0.0007141918347301299 0.003177504840218909 0.00318748662960924 -0.0008892351244958991 0.003736062379691193 
-0.00841065516187078 0.001316744536365385 -0.004154155158337115 0.006371023709353432 0.01016481690929673 -0.001760985839588326 
-0.002950868943001817 0.0009833979344100073 -0.00299851208373566 0.003538340551599901 0.002304710824567038 0.0001133001213670176 
-0.0001467988546724764 0.002615154208391115 -0.00434268400152212 0.001651022736851637 -0.001695632626178656 0.004331794080858347 
0.01451991920264121 -0.006615590502826191 -0.004557612278935513 0.001555816567037551 -0.0002488991465784869 -0.004235659797966079 
-0.003249212845793522 0.01121510651980035 -0.007265264164487058 0.006623500081231011 0.0003683734461788061 -0.00535905757370196 
-0.01737538815250499 0.008143463924434611 -0.004580791389441178 0.003969512126643915 -0.001923058605343552 0.009167079613531416 
-0.01424251786775626 0.002512019745822316 -0.002335886439043267 0.003527107880219341 -0.002367777422358342 0.01120499530316378 
-0.006955554857342354 0.002156419901462753 -0.001853680368838052 0.005926224264228315 -0.001337446200302094 0.001869737461682408 
-0.002546990949176133 0.002965943634748558 -0.002426922417567794 0.004271866781303638 3.39011340602711e-05 -0.001590131750671469 
-0.0002058490325561322 0.003191089985070721 -0.003908418085572393 0.002575793174149325 0.0002350546787088675 -0.001968403838461505 
-0.003461766030825545 -0.008298435836154361 0.006739441172826184 0.005245207136322276 -0.003948532503152177 0.001052640648163573 
-0.01116592504603935 -0.01199307509268143 0.00323181137168035 0.006808043860496531 -0.006077661098040478 0.01018316265047681 
-0.004966862801628277 -0.01419332551131181 -0.00793152759106164 0.01416014786093459 0.001653301624202731 0.00596786370953912 
-0.01260085170811808 -0.008245777487307239 -0.01150246676990656 0.01195654736647265 0.01494498209051395 0.004104751460921868 
0.005863763098872997 0.002675431943830632 -0.008189984863080342 -0.009437220972444812 0.009423612651939814 -0.001903251195969999 
0.008248336649239183 0.02194966852660634 -0.01085364566440865 -0.02531377569076078 0.009383961638176293 -0.001408744031000109 
-0.004248613858997148 0.002567317329784999 -0.00846678329699113 -0.003130579144678652 0.01245280188366746 0.003936983571826908 
-0.007071147199536275 -0.002896230080045122 -0.01182836802152355 0.001978727663853121 0.01377976511535122 0.004687247166370659 
-0.0007325894605777318 -0.004360849747409976 0.0005941266893591068 0.003675984126537508 1.767601091658142e-05 -0.001135923118398217 
0.001907678417940009 -0.009701785460320734 0.001238903623554849 0.008822704078519102 -0.004268371737132974 -0.001299648538586405 
-0.005378245128563563 -0.01324891532221165 -0.001109746408760891 0.007249133235092031 -0.008516902557827869 0.01263206212073028 
-0.00103534987044092 -0.01875290306475545 -0.009196239506124922 0.008623406724393705 -0.007547915417741197 0.01859008058058192 
0.01399252964740873 -0.009364991058210249 -0.0107630942916974 -0.0003807062534557009 0.004490260953100084 -0.002275605218639108 
-0.01095247773596887 0.01230632698547376 -0.01370963673766383 -0.008901873602221055 0.01365713637282593 0.006132882845942288 
-0.005215623067603979 0.01187165570049546 -0.01080326125558614 -0.0007357629985071417 0.005383734287965785 -0.002293941037070953 
0.005293201853488785 0.004529122648046785 -0.006698580963164166 0.001030835107700015 0.003957368517794293 -0.006789221014907655 
0.00324783508927256 -0.004258087928880701 -0.006445555371505081 0.0004159748154001029 0.006781507931695015 -0.0001134088843258869 
-0.003549204299811665 -0.002644963210383036 -0.01026909438724583 0.00110108936915008 0.01673497186407484 0.0002635813826906858 
-0.001269898001184001 -0.002022287174822212 -0.006250125920341076 -0.002687397480936324 0.01249728504656433 0.00336072455215415 
0.007276822178264701 -0.0006110537978903351 -0.006048742527602354 -0.005881845579556098 0.01398935014369094 -0.005837967595228782 
-0.01208775492093596 0.0005467877985432828 -0.01124501716091029 -0.006512231574880563 0.03585717482742097 -0.01132871329772574 
0.005453165000596755 -0.00425542917137905 -0.008523875622502501 -0.001632442220166587 0.01465272721521591 -0.007060736831847149 
0.005586767449825315 -0.003208459361341398 -0.007798139930370968 -2.57409352991015e-05 0.005523884068099886 0.0009110414870488399 
-0.006083389094688125 0.0002489102053632076 -0.007042448971729455 0.0009649192291613637 0.01240791789989987 0.002330011717613772 
0.006731742789181652 0.01102840175829125 -0.01342171920548104 -0.004212969777794212 0.01002107408677845 -0.005399595992003146 
0.002007923087797609 0.002151356284655037 -0.006369309899276682 -0.001736731840820762 0.005022544726857891 0.001726390418936204 
-0.00267885579170177 -0.004357430025490911 -0.01055834302272237 -0.002212472115774651 0.002152288352621635 0.01655595808192267 
0.003365202125062055 -0.01900768079728353 -0.00808084169926448 0.005554798063070911 0.007216037082489607 0.007291293782724855 
0.006152811066247724 -0.02265853730865423 -0.01004201737611378 0.009605415709467827 0.01084238925706799 0.003927682969393102 
0.006327565474660526 -0.01902461625735106 -0.007122112578720051 0.004992859340634371 0.005585744182899277 0.006863607294796145 
-0.002881615910480058 -0.005166114998555005 -0.006580018250073901 -0.0001307709695935157 0.003837334046546957 0.01107914809440698 
0.007330094484164986 0.003693293614277587 -0.005210480641405916 -0.003393321592047 -0.001607462509932491 0.00152339872888088 
0.007736841818464396 0.008692705589459278 -0.006779526618530733 -0.004538321669966192 0.0001868890781869997 -0.004231131603933459 
-0.002412554149449466 0.001207780734026011 -0.006441716289550189 0.0003691902520425718 0.008350615694749387 3.192512038914974e-05 
-0.0003488938006557372 0.007818525697124505 -0.0115218358541604 -0.005125887649490435 0.01133275312237425 0.0003972330450672369 
0.009595355249691224 0.01828338840098777 -0.01354720473977307 -0.02018874858435309 -0.000241185010848 0.006538576243495914 
0.009797325289039632 -0.003255550009430056 -0.01125148008716685 -0.001313696626095677 0.002279792011802528 -0.0002729492349089435 
-0.008286321579525014 -0.01318135616477257 -0.01496795964988437 0.01618357180068505 0.004737695422662712 0.008880501430025351 
0.0006753275886493939 -0.01532312540343156 -0.004545859952102028 0.007381896559389467 -0.003605463182942058 0.005726094341537227 
-0.006785159183879731 -0.01665826972896818 0.005392419318773787 -0.001622255418577329 -0.01505072793988642 0.02140922533088443 
-0.008856156410953862 -0.003138807348183549 0.00903939149875442 0.00154454943062916 -0.01302650849287205 0.009898307549468353 
0.01431167527312628 0.004990331934490898 -0.009704848083940107 -0.001156176007700106 -0.001248808470956647 -0.008638871791687184 
0.002928974651449789 0.008323341005226392 -0.01144931498953242 -0.002802727296301703 0.008442933464020202 -0.007130643098629062 
-0.01260419251813598 0.009222651559494928 -0.015527260290619 -0.003954697160816089 0.01827300267634274 0.006241448153483121 
0.01223783270531762 -0.006525126070228249 -0.01090055663961631 0.003132875840910051 0.0025046103500229 -0.001291991945797272 
0.002583444353040079 -0.01588232365060749 -0.01604241048723231 0.01894234561205143 -0.008794722398083364 0.01437974236726206 
-0.006100741704972385 -0.01344019426321902 -0.007589317262550163 0.01245705624639468 -0.01216463209710034 0.01774380077218079 
-0.005639359365977937 -0.01217392429585745 0.003888474827352397 0.002422398145523488 -0.009243379734758729 0.01411078056683052 
0.0001128393695204589 -0.002429537967999863 0.0006899520472570865 0.002092911230548937 -0.008492559544916074 0.005010385547998054 
-0.002427978267225499 0.0006705590111479675 -0.007532430235362331 0.001203418205787377 0.007837010618534732 -0.001169394498954013 
-7.280238148169412e-05 0.0005436645700928635 -0.007156414769686725 -0.0002467149332878456 -0.001393805602457929 0.003885653232615622 
-0.003281111610540832 -0.01865503251371256 0.01311598161079602 -0.004190250506524366 -0.01019314797687371 0.01097302072206305 
-0.002167396485056816 -0.03460922003404182 0.02465586771566244 -0.008743214826393737 -0.01287737151538711 0.006636739555401619 
0.0180085291800444 -0.02845775030786928 0.003858051271254769 -0.004995809288041922 -0.006771227424481796 -0.003250124316660803 
0.02422255046417632 0.0006782892948317739 -0.01632629711100139 0.004088040697783547 -0.005973170185570838 -0.009730056280348266 
0.005371788050999841 0.003336453738747101 -0.008741070325745438 -0.001075463156846501 0.002674074977973392 -0.003488284533805064 
-0.00608253318184766 0.01255567661457422 -0.01223283301016021 -0.0001706850293997433 0.01229574544696124 -0.002017718074861023 
0.001237398473216291 0.006928561134188126 -0.01387257459928436 -0.00389856357810654 0.02954422464782171 -0.01703450772194363 
-0.007287444551552064 0.01626213323225394 -0.01743238459553632 -0.0030400902956306 0.02585519348925723 -0.01725738968623394 
0.002389327605120912 0.004594823823996412 0.004930187594771386 -0.004125715915397159 0.003575167801075459 -0.01105853523740492 
0.006511990968127458 -0.0229165790606638 0.02679686272942436 -0.01015259932753224 -0.01391883193478409 -0.006600400970124543 
0.007728137172015787 -0.02643481400256566 0.01433781069560034 -0.006731297974089509 -0.004186187731138771 0.001472003412419692 
0.02122980160290458 -0.01194298764134009 -0.008012510380653409 0.004513608412293212 0.001819554005872764 -0.01134897888311471 
0.01236663290390583 -0.008246896157915984 -0.01013288766446908 0.007635171212065383 -0.002918684085312498 -0.002691783318207006 
-0.01411729736384209 0.01158135324533781 -0.01159889723985972 0.004059364276460334 -0.004740923821430848 0.0136146745539558 
-0.007641219811630053 0.0168595778764083 -0.01354248849025034 -0.004540729035961836 0.005380529790131303 0.003356442780140037 
-0.001786802292781109 0.004889080770454616 -0.01157604125265261 -0.003433461424114857 0.01016470889668194 0.004806056761649038 
0.004520684809494056 -0.001195085569506795 -0.004853444046371384 -0.0005638107404568538 0.002372560816232859 -0.0007878667317809357 
0.001141963576533917 -0.004422890337529274 -0.004024570703632141 0.0007830385935460531 0.002522013391243884 0.001296096097653588 
0.0007982100506426795 -0.01321227432995436 -0.009537162256814002 0.01974430394119135 0.003725098160276028 -0.004487306363905506 
0.003710526005234238 0.001065497602109781 -0.01062570003950085 0.0195625390743489 0.0001427588485148166 -0.009937575490733609 
0.01746755536567854 0.02590541742083182 -0.02467012310020334 0.01720869327974674 -0.004548683610275896 -0.01983274397032617 
0.01052652441117732 -0.002784985992036703 -0.01175910577614768 0.01645558693220334 -0.003117340356455224 -0.00999925571496439 
-3.993136173612854e-05 -0.01652402287469431 -0.009595586841568401 0.019928889560304 -0.002335038892880491 0.004972059643405867 
0.004012086188714371 -0.009378222099504828 0.004943918172584157 -0.003393103188300679 -0.00946824736926774 0.008145082500212203 
0.02662378724746146 0.003714467585918664 -0.0113061150984096 -0.004268770861352639 -0.0102584377340941 -0.004607931349774889 
0.006437187101889786 0.0008729194652285443 -0.001008637927961984 0.0001338766888715438 -0.005288168413026284 -0.003888438283122323 
-0.005033039358249082 -0.00578063961524249 -0.008324762564747713 0.01026072936484734 -0.005270171234610098 0.007886519843414729 
0.00392330121757022 -0.002399359696365312 -0.002682355677159632 -0.004219327938613522 -0.008525808138461865 0.005446197716055913 
0.01479292671351684 -0.001510134592336067 -0.0122300897201073 0.007408758301532378 -0.01270622308182799 0.001689598071371606 
0.0005899434755945679 0.0002126265252497978 -0.009532885331409504 0.008558834606844156 -0.008883435985349105 0.006292098104328784 
-0.001362172352482645 -0.005124443393792109 -0.002045296972008371 0.004296249600130617 -0.006994199411266696 0.007889860086540851 
0.005691502339323469 0.00685101697493926 -0.004323573835227361 -0.0005729360693785986 -0.00309926983037758 -0.004945114306896058 
0.01509002428332527 0.006646840150755003 -0.007046686463138301 -0.00337782635801516 -0.002036134219586416 -0.00878300691257612 
-0.009821141792207042 0.005766665085441392 -0.01098040152935364 -0.002565880732965434 0.02203035258919235 -0.006868296286244561 
-0.004307930336083275 0.01506243246172683 -0.01700637173039114 -0.009866360804990586 0.02621467623649206 -0.008141837733035276 
-0.0006655482186558807 0.01581294648781382 -0.01466696829071508 -0.007570418598213002 0.01132790259754426 0.002237484673738107 
0.007734659618957694 0.003088931430772612 -0.01046915121166392 0.002797149176012609 -0.001218264500007015 -0.002334963914499539 
0.02525932696342002 -0.009799878437044614 -0.01471165740444841 0.007723827936592304 -0.004311841471447555 -0.01170336278477303 
0.01824465939558749 -0.02711130087038248 0.006447766705535256 -0.01003013245403566 -0.001140242367651948 -0.01014030715110421 
-0.004182577885441951 -0.02965229939000816 0.03734969380571802 -0.02843792464652884 -0.007663779246300025 0.002495872880236935 
-0.0001726457228156306 -0.0007841629660845973 0.003513024828998144 -0.006065663913340341 -0.003508490027780551 0.007379363056192876 
-0.001656453694180647 0.006811501902196162 -0.01834800859348381 -0.007382741126238954 0.01198427826435318 0.003564911062785534 
-0.003472591389834355 0.01691092761796829 -0.01208691048885999 -0.007285997272069722 0.003338195924423634 -0.0007749100703253962 
-0.004018996249234718 0.01624710399708858 -0.01351076606920243 -0.00300432677493875 -0.005818301098718091 0.01108774954807019 
0.01588676565081623 -0.00574587542483266 -0.009342016715684512 0.003169313065806331 -0.003428834728359271 -0.003692661294736012 
0.02009739414990142 -0.01030284700099829 -0.008174871527799516 0.0007496918369740236 0.002176369270838809 -0.01089004172385715 
0.009748365451893743 -0.02640134450870018 0.01525391988755113 -0.01130209072221731 -0.0005093346175263027 -0.005047797049752985 
0.0004203521416761123 -0.02096628132117169 0.03539925264362394 -0.02180690208460247 -0.01212534141542099 -0.006403028174517813 
-0.004048020873958118 0.004748329550010161 0.007995587818149436 -0.007696417907052942 0.005353406971318038 -0.009053888868371288 
-0.002698518363764588 0.009230685929702331 -0.009363225714014482 -0.004371718214680913 0.01402131436137192 -0.00384050428478921 
-0.002868158808518071 -0.001946858672362911 -0.001450971527109999 0.003344028411653225 0.005380694442101027 -0.002367014693080227 
-0.004876965673738286 -0.002359027783307955 -0.005179677759640136 0.005387984149840536 0.01324192731952049 -0.004436518127700675 
-0.01553501448964903 -0.005957151383361214 -0.008660277253776197 0.002245255338997669 0.0154758150083812 0.01299490120713422 
-0.01018373039420529 -0.02104055766874189 -0.005611909387472403 0.006553740758041811 0.01251285254207295 0.01612149050643349 
-0.001471421008612317 -0.03191339911270415 0.009180369291206596 0.007095562265055075 0.003355380838050908 0.007648615575537529 
-0.006719917231502231 -0.0144789601704883 -0.000410790114026708 0.001991924298162818 0.005607436609036611 0.01359592779310159 
-0.008712095118540363 -0.0009138775252293872 0.003495595974416915 -0.002392956356426725 0.0041292209718769 0.006058778853854379 
-0.000609804253064308 -0.004402262065342877 0.0006532138753950165 0.004563509060530431 0.005125930845615289 -0.004222753223107686 
-0.008645561823622533 0.0002093807052903586 -0.006019138398579591 0.005958242815192728 0.01820991855178892 -0.006183282694141702 
-0.008274111905983754 0.002172531456012489 -0.006586468452598963 0.001616424831016877 0.01263346506806149 3.74713992653529e-05 
-0.01054258940204929 0.004604839147796054 -0.009514130659517124 -0.002202518767359183 0.008478174556908875 0.01131798591391523 
-0.003076559399628453 -0.004653977246976141 -0.007655759179404459 -0.002658468193279671 0.01158926993452598 0.004556362931633323 
0.02697524860765212 -0.01812451574653072 -0.009797349833188806 -0.006278288591763168 0.02192863477922307 -0.0152665812815609 
-0.002692812624083104 -0.003681364814447119 -0.005842754105398898 -0.0007812435313134206 0.01067158444548875 0.002190762597786151 
-0.0153499533751595 0.003603683233422187 -0.004352596657830186 -0.00216050502831416 0.01073049112968409 0.009931810795014198 
-0.006419019500659829 0.003043201787787497 -0.004685681657698409 0.001990416520289276 0.01083974475762001 -0.0005603474800673318 
0.001918476830149275 -0.0008920554311476622 -0.003672174865135667 0.004752731302601038 0.003906301030544795 -0.003387695640589308 
-0.00281487921332572 5.495689701502972e-05 -0.001269075534687431 0.003548875313038253 0.00106408564034462 -0.0001277573592819322 
-0.005294810022431788 -0.003609273096970692 -0.00357347018104825 0.004106825082021213 0.001449383052026259 0.00606428282970711 
0.006268549529975045 -0.008062141969744077 -0.003253421793494568 -0.0009745564828442973 -0.004381533148625053 0.009011409471396056 
0.0003840262067143711 -0.005547893353661719 -0.00136895186717891 0.005294779701082383 -0.002707212451133132 0.0008084151651712041 
-0.009910782110882439 0.004510651946531496 -0.001532449900860998 0.02674679426996544 -0.009487250126635118 -0.006285620506356496 
-0.005667792708662223 -0.001047271341440554 -0.00297974054350632 0.005714633667633553 -0.001187387660377106 0.006553835095938824 
-0.01222361742535863 -0.002437599437582194 -0.0009020591608612067 0.003132164736765457 -0.001475978064744175 0.0122120279491535 
-0.01076417050348437 0.001061009677781501 0.002820684263520248 0.002796355578057482 -0.000243866709386971 0.003634581696073124 
-0.007774033395314012 -0.0001760978740800221 -0.004607270022253929 0.007434189334679009 0.009738905091506126 -0.002132482176204261 
-0.001932462663469179 0.0005358644933981963 -0.002693942763991017 0.003486473241172004 0.002309138090506918 -0.0006805363856936262 
0.0001288002545865683 0.002465418545414385 -0.00395810200135199 0.001914604813605948 -0.001493165289746977 0.003293939046269712 
0.01314983933012648 -0.00501104407765062 -0.004290554882260371 0.001962591190177811 -3.679320330503803e-06 -0.004617859256771687 
-0.004423534149150117 0.00930851017792709 -0.007700565950708525 0.00889567045772552 0.001732140438514674 -0.005282995424620633 
-0.01871616747659033 0.007196982559234545 -0.004088412236895817 0.004560843692468551 -0.001150845762961423 0.0102654733322491 
-0.01560137917756515 0.001939032667503582 -0.002245345064382203 0.00335267552056784 -0.002476362780468087 0.01308723093626757 
-0.007023380737305089 0.001869286458244721 -0.001728063207533022 0.005548852018935305 -0.001152540176232711 0.002286292408934072 
-0.002830026536414876 0.001155538666002421 -0.003266235802270101 0.005825029234905756 0.0002571383773940338 -0.001354257008517301 
-0.0008877851069582907 0.001081627652930329 -0.0003428272534274129 0.0007688056777476073 -0.001059003523166968 0.0009904205636245757 
-0.00317053318415394 0.002379790459881376 -0.0008425258273424724 -0.0002627579465320093 -0.002331867463760509 0.005136844917500238 
-0.003874932189251442 0.008345397539405542 -0.0002907071973590708 -0.00600896457951392 -0.003935533557061373 0.00556294612311977 
-0.0009565288425000287 0.001276967376401224 0.0007565685842922652 0.00201314899271064 -0.004040331183511789 0.0004334228225058056 
0.002023637743400236 0.005157588278694996 0.005151683002782733 0.004807620117683011 -0.01242601791229849 -0.006271628410147955 
-0.005272693439429071 -0.002754284974972798 0.007313462918231686 -0.005859978046233506 -0.001694979869329929 0.001360295008062868 
-0.01017736454638407 -0.003761418830771805 0.01354976334376586 -0.01084424669870681 -0.003281843619214647 0.004824379168128575 
-0.01312464343179556 -0.001209709972349529 0.006427162787505015 -0.003486098755331426 -0.002892969891536102 0.01013612062719237 
-0.009702441730449037 0.004302745825866735 -0.003507237764094128 0.001982452196933293 -0.0002621944917197305 0.005771143610719261 
-0.0001299763538711114 0.00349534514592754 -0.002401672500581376 -0.0002851049923076695 -0.002246445948527585 0.0008944878047570983 
0.002280776731194584 0.007129319421518444 -0.003332506646699483 -0.004742749725686474 -0.003173020290945476 -0.0008052615542886107 
-0.004039389140475939 0.006037931329475006 -0.004529135162014495 0.001336018860263948 -0.003132217435449605 0.000654898386667402 
-0.02175253327223164 0.01671621176580076 -0.001882660121833818 -1.142541401696288e-05 -0.0044780221837545 0.009761217995746382 
-0.01651411210875414 0.004213692895159982 -0.0004619154827813276 -0.001687826855216212 -0.003270917584618019 0.01254073465129393 
-0.01287106173616087 0.002503435980509374 0.00708883641824581 -0.003429103297052408 -0.004580962908058665 0.006708559177784725 
-0.006367718099409649 0.001041217732107055 0.004238399307011263 0.0006068678879832638 -0.004710907405714972 0.001796068584431658 
-0.006401188433013681 0.001666933784386299 -0.002609871686624474 0.003111673647214158 0.003326026836632988 -0.001346333595675207 
0.003010835305519721 -0.007011266210744806 -0.00674444585364705 0.001160476820468382 0.01004355576713948 -0.0003021460201590445 
-0.004230050149987545 -0.007425526262854145 -0.01048792882398838 0.002188220314851478 0.02169560033146151 -9.758100296839551e-05 
-0.0007803305861071189 -0.005779404621291451 -0.00707818625427857 -0.0003858717795863863 0.01478333349681594 0.003231591627356925 
0.008373653982186006 -0.003486157016646891 -0.008209898141874528 -0.001741803808441701 0.0147816902183272 -0.006488265070548344 
-0.01195675225442921 -0.0006566954174646125 -0.01313242281546254 -0.004878607080705713 0.03956362920138376 -0.01272713424299489 
0.003200250123527028 -0.00403296017710823 -0.009245420883516649 -0.002192106940637821 0.01963998071671149 -0.008520136411650274 
0.005112348932807362 -0.00328596422703024 -0.007952227187616935 -0.0003329614630805301 0.008134376577191535 -3.938067106013888e-05 
-0.006143678874181339 -0.002233911149846359 -0.007845918888140497 0.001332334954997426 0.01585551249523445 0.002243253067167308 
0.009339026941738757 0.008363773052374396 -0.01549327140413632 -0.003971993390624913 0.01272097360893042 -0.003910031739437347 
0.003536383829378675 0.0004683179842312161 -0.00705709070436376 -0.00185367845744328 0.006902922105648866 0.001972299656454572 
-0.001431922076216486 -0.005774830059416517 -0.01153004392143913 -0.002390808711857813 0.002661677496692679 0.01776410979172731 
0.003506397626870524 -0.02076918316533507 -0.008851250148101326 0.005513976825678425 0.009062283254757957 0.007761493180331111 
0.004278784455128291 -0.02591667481980883 -0.01150978773112053 0.01155879724768307 0.01193108964528358 0.006670175938112214 
0.003105918098567183 -0.02128544877690279 -0.008466567794881681 0.006640787927677052 0.006843522923504246 0.009805105379595029 
-0.003415958769765801 -0.00611181635296953 -0.007401766029225387 6.476412128355704e-05 0.004647587852720451 0.01226270519548612 
0.007695729796633842 0.004183546049675047 -0.005570345442349049 -0.00313057586670768 -0.0009926145473019309 0.0006794310278266868 
0.006166640905966575 0.007868918829160874 -0.006802364126803657 -0.003432181916227532 0.001803574984158593 -0.004170596805680067 
-0.001788811088244455 0.0005739458236416698 -0.006460140554816631 0.0002760297394367354 0.01001750516402518 -0.0008275946948705702 
0.003126320755864534 0.004619128699526815 -0.01164360766096248 -0.005581967500900702 0.01403106869299708 -0.000264620102583389 
0.01274416626577211 0.01507585540352482 -0.01294264670847584 -0.02164202004222652 2.379323460951213e-06 0.008487831482457232 
0.01175396187617984 -0.004615199588459221 -0.01052730802540159 -0.003514572635411889 0.002886523249911122 0.0007609230797805401 
-0.00805587848287641 -0.01334964016034289 -0.01354946964369501 0.01382676388647322 0.00490837190978769 0.009851656180097711 
-0.0004587360828971742 -0.01299301516947652 -0.004570634094416731 0.006489438209088957 -0.004853229903729193 0.007885250866745137 
-0.008771729557171969 -0.01358157989314409 0.002975093590538809 -0.0008461449300957781 -0.01896230916224032 0.02662816548752824 
-0.006892434426473823 -0.002242254278748104 0.005927598370302731 0.001321145362130497 -0.01422730275100043 0.01207746240553716 
0.01698435334112539 0.002352738692161382 -0.008041230448014143 -0.001069445884658818 -0.002094353285147248 -0.007863321713939168 
0.006512831358863447 0.00657023236910002 -0.01138811304488402 -0.003426775482438955 0.009951296692867713 -0.008373463172264055 
-0.01067090248503162 0.008911384225914096 -0.01503513356082218 -0.004505073202424209 0.02134612143623896 0.003154765069376061 
0.01082770813303186 -0.006195205952325864 -0.01004305934811993 0.002605009560434907 0.004238943553134762 -0.001644065037455805 
0.002528707025348941 -0.01690774665786409 -0.01504815052619553 0.01776736752428442 -0.01127595770491868 0.01736904118187122 
-0.00748040179609342 -0.0132409156396281 -0.007688491814626213 0.01187287246077732 -0.01541198411885426 0.02161105858301452 
-0.006276807135324641 -0.01184201822354846 0.004832885537812165 0.002799972300999797 -0.009272843309448959 0.01417533092781003 
0.0007905061848334081 -0.00371095555065608 0.0005222246558682031 0.002107637930252319 -0.006623159345827434 0.005073539106020093 
-0.001725094778672174 -0.001133684391282155 -0.007465522293653723 0.001061293367589705 0.009749088837595331 -0.001165095742812888 
0.001474530638093883 0.005539963655501139 -0.005429035586913328 0.0002099816433322222 -0.002541847152128857 5.19246560669388e-05 
0.002003210724734062 0.006326133017095155 -0.00747333929635236 0.0007000121772330328 -0.004253310994203599 0.0004110862009057698 
0.0008089212770033603 0.01009389012034418 -0.006543682232802846 -0.001946835528887572 -0.002497428889107331 -0.0002519831199636803 
-0.004349329023414831 2.193113257814874e-05 -0.004540992374346855 0.004672031051825073 -0.002323012504151225 0.001751857201466324 
-0.008536482025887387 -0.004578453961717916 -0.005511852226895636 0.005505212432832811 -0.005538407498193508 0.00802880279643978 
-0.0120154892005997 -0.004703651324664614 0.009899423072387132 -0.01028467072457413 -0.003337247425314228 0.006064668300576751 
-0.02530855297570513 -0.005584264791242075 0.02432617468542604 -0.01978565703879552 -0.01245538007183019 0.01811312295070196 
-0.007741721758320575 0.009265412311220605 0.002974950045595905 -0.008395976370204479 -0.009673054396071327 0.008070272800866522 
0.0233622624073204 0.005004421936499168 -0.007243017666013637 -0.008685211419033719 -0.005640404760906314 -0.01275768039361463 
0.002153110004786824 0.0146048374125909 -0.006474907186321909 -0.006376038773919133 -0.004017853806842476 -0.00599539313425864 
-0.009630753433932809 0.02191651294403237 -0.004586658011949565 -0.00796741665930307 -0.002746504444886173 0.0007007512970115633 
-0.003822132116594407 0.0003010364748458849 -0.004487702378165806 0.005295711640247345 -0.003362798092449385 0.006451140108167725 
-0.01031641234273284 -0.003154792643332844 -0.006719850699887092 0.009891160264316872 -0.004251611295655872 0.01117994699570254 
-0.01089413168451206 -0.009895396375403478 0.01304326738894701 -0.007039301839841597 -0.00135802419878341 0.004697713134940639 
-0.014623187536731 -0.01124581630052906 0.0233219603597932 -0.0155606196389864 -0.00694073255673349 0.005443403683389114 
-0.01470972787244481 0.01039749234271757 0.004832523692786799 -0.004930249629750658 -0.006132974068745832 0.003601181882449886 
-0.0001262734709292714 0.01345803770211363 -0.0073128076964626 0.0009964914450549761 -0.002734847898897436 -0.003853767483707855 
0.00652498397061316 -0.00403742260859716 -0.00468463557243018 -0.0005209178690185761 0.003991379201665657 -0.001157410763364405 
-0.0004728685956267897 -0.02135587506812096 0.01232360622897125 0.002359661415285576 -0.0003212683850454009 -0.00151694944138395 
-0.001533066178476888 -0.03035857058745823 -0.007846033879474164 0.0317090574262955 0.006079047570945954 -0.008412995835225224 
0.0003995418108385249 -0.01544940269735554 -0.00625403123138932 0.02333143639397671 0.001759940212085193 -0.01255527225173414 
0.0127762441459896 0.01465916456075686 -0.02192793833130448 0.02490879913758276 -0.005435580440393484 -0.01876585083563931 
0.008338211782478729 -0.0005072015629187806 -0.01411562131593737 0.0191580523050653 -0.002974988649854473 -0.008153125419863462 
-0.0005686568492423542 -0.01230169056718205 -0.009766072719679209 0.01620311395815123 -0.002282282846319191 0.006487181605976637 
0.00479987757768291 -0.011590050008492 0.001612306237922367 -0.00271248069431917 -0.009920500024067755 0.01158019178971015 
0.0335083276431634 -0.001811646767549207 -0.01563359102437374 -0.001666298238671132 -0.01390496396882737 -0.001259741996232398 
0.008986996726310176 -0.003612695337148406 -9.559046111527327e-05 0.001339838760019795 -0.008735731166891683 -0.005286297792668479 
-0.006493676511270295 -0.01294027561728642 -0.005347045095187276 0.01099912545989595 -0.009929033311448942 0.00727592538792855 
0.001922229725132245 -0.007909322221316011 0.005978316782381705 -0.008518330968794952 -0.01150115801723754 0.005442328586902254 
0.01390948148474106 -0.006037207831969957 -0.008088316690462227 0.01058758436329499 -0.01731270795363438 0.002483885972110883 
-0.002206632899558044 -0.0009849149302717465 -0.01093294838425763 0.01268037754604773 -0.009701795341254277 0.008713138571972711 
-0.003610370623251193 -0.005172188405597388 -0.002123056888567061 0.005116258607931709 -0.007178656755418995 0.009655376731960838 
0.005328663862987988 0.005943915644445653 -0.004571349332765645 0.0003515512974572457 -0.001863153535180363 -0.005487793078556984 
0.01571231386611388 0.004528753560330038 -0.007445323455813497 -0.00182962829749599 -0.001149548230792905 -0.009704006702303494 
-0.00903463553625522 0.00426630761690811 -0.0109242042064773 -0.00415866523670945 0.02644329095525099 -0.007798521945314532 
-0.002225438464647484 0.01085697167522079 -0.01755367736770575 -0.01240619565408427 0.03287780848371846 -0.007205066546913852 
-0.0003610556516229079 0.01104433811609397 -0.01517320558526217 -0.007591825217398643 0.01639974061714471 0.004157969273919487 
0.007603669890091765 0.002598073102707159 -0.009383297257370127 0.000970787541676228 0.0008434542584570317 -0.001514660124252875 
0.02441617663126926 -0.009043280681489456 -0.01511622514031694 0.007154652780424546 -0.002341634914984976 -0.01111834531882272 
0.01843621880365109 -0.01812642185112117 0.003394493886195946 -0.00844005663988971 0.0001798313750250894 -0.01062418875222568 
-0.00535661807668994 -0.01645914803639734 0.03239945976010036 -0.02212898742694908 -0.004612799803213849 -0.001230466225075309 
0.002337777428144746 0.003785363031900731 0.001531153732617947 -0.008321395350750898 0.0003553915345537074 0.004530848696604363 
0.00110333199885303 0.005004101613731473 -0.01719139884792725 -0.009623556099905901 0.01639464621173334 0.003394654369660802 
-0.0007619313262926367 0.01253981630741244 -0.01225317191582679 -0.008562289431783554 0.006584787643475807 0.0009458837538271185 
-0.00351332936364777 0.01487546689907421 -0.01314121852289069 -0.004929428568904166 -0.004867439268434732 0.01330130164599539 
0.01423469275999707 -0.005662623012258944 -0.007869718291673969 0.0003179391429955186 -0.001580143583735268 -0.002993630331283619 
0.01693412437471321 -0.01123009059410338 -0.008153201612920883 0.0002513639001595841 0.005066340599113807 -0.009134773208899027 
0.009529782687147798 -0.02276371059388752 0.009715698399123613 -0.008403714673762951 0.002338656982024279 -0.003866317327481041 
5.81013178805046e-05 -0.01564233544500439 0.03009857044440152 -0.01658882245979925 -0.008165024869728697 -0.007060845362809211 
0.001473847673312831 0.004392851813721304 0.006678959793972553 -0.00906795698940812 0.009497941021136467 -0.01276273290487977 
0.001317737712531182 0.005227474086210947 -0.01074238476441584 -0.002806427198085558 0.01604021591692485 -0.006587483517887931 
0.0078364953253354 0.008651725256380345 -0.005071221226761962 -0.006344563646132143 -0.0005368409419032544 -0.006956668424541981 
0.01634018886986423 0.007867304349899929 -0.009750080692207777 -0.01034829764769745 -0.003883798037157929 5.772024474626964e-05 
-0.0005213996585029006 0.001529586447631786 -0.01249979867038694 0.0006990722570230012 -0.009009579453741883 0.01964147328165576 
-0.00258657569226735 -0.00863721128511308 -0.01158746639730273 0.0134786966870357 -0.002780599875460234 0.005279606522946614 
-0.00484887219546539 0.007027185169898577 -0.0113023711383738 0.01160399671667007 0.002827403104092809 -0.005872176797887473 
0.001102728778271241 -0.0003997782582890901 -0.003542411769561895 0.004814496010157781 -0.002277853573987488 -0.005038433559597726 
-0.007181720690478978 0.01174286433383707 -0.00346124551239989 0.000824088825096606 -0.005435412901577055 -0.004837211609676276 
0.002372255745487251 0.01736126336142007 -0.006863990736572108 -0.004311511358704144 -0.004741839390954378 -0.009103695503269274 
0.01112954940076407 0.0216420738714287 -0.01334062165495269 -0.008428738168221751 -0.003907912692400413 -0.01379308111697326 
0.01203971495756422 0.01061066070780764 -0.008461790369657047 -0.009078415074283039 -0.006073928278180844 -0.00390830786659998 
0.007007785523322132 0.008993943882629033 -0.004743407134913414 -0.0042853420325972 -0.008073021875091678 -0.001259206504511837 
0.01200778904486724 -0.003930250208310416 -0.00320267401866687 0.002782759270696152 -0.00340471161385517 -0.006066030006615637 
0.002460894242999248 -0.005122308925857267 -0.003908219960688281 0.002753596746370897 0.001359666640639614 -0.002113866549167234 
-0.002909042900964167 -0.01385231680092071 0.003696775117714165 -0.001326623776616694 0.002326632761927388 0.001536666785904166 
-0.006818854176032269 0.006700309449302096 0.003596188725349499 -0.004512034264382352 -0.003156375940321346 -0.005828248890239314 
-0.0005149977905021809 0.02156095393174783 -0.004897953735384816 -0.00988080345854212 -1.908022547496459e-05 -0.008674622919976713 
0.009860168621763175 0.02041452114600875 -0.01129978357569407 -0.006570687681619984 -0.001023042992939231 -0.01347516520026439 
0.003592403734434571 -9.393581558533702e-05 -0.001385185266843487 -0.000668162470607288 -0.001140140765228609 -0.001194302594096423 
0.001554772246799363 0.001745267717929258 -0.001705300615297074 -0.002138879972739739 -0.002944068268058278 0.001071532747404541 
-0.003356676100542318 0.0008023910008528517 0.005546375770122115 -0.005807192958128229 -0.006131236928619696 0.003027411776737781 
-0.004327100286104178 -0.002464043728004399 0.008756105214383671 -0.008163216638005568 -0.002328010824551601 0.001786231734947864 
0.0008893577795894657 -0.002982864499715112 -0.0003258966635966224 -0.003781428136374762 -0.003190305497786854 0.0005887091360461688 
-0.002121996256105029 -0.0004635191807265333 -0.0001333328017368807 -0.001571826266110986 -0.0007676124766958658 0.003113606125284949 
-0.0040472652048974 0.01401085407000262 -0.002038081038834649 -0.01073347796464253 -0.003253079407166783 0.004533970451311426 
-0.003295374662111474 0.002047865066657975 0.00037372843148665 -0.005640794033604111 -0.003864848345497137 0.007138346758993406 
-0.001813471583452633 -0.004983067189993286 0.005017741185896566 -0.002327106033910203 -0.004599564023021231 0.003506197875595376 
-0.008808251968457474 -0.0005495015194664737 0.00357151976405459 -0.002832610091746582 -0.0003091274214618975 0.005465324044271601 
-0.003466399536098883 -0.005284115625606913 0.01086540664449629 -0.00641274472466876 -0.002268536028056244 0.001391362970020982 
-0.00536404229294701 -0.006385916208111474 0.009770724285182027 -0.008349230267749403 0.003466579550983083 0.001345212192699341 
-0.01065430252279645 0.0056604841021569 -0.001844783814421914 -0.00347134436436904 0.001442747974823373 0.006256859312133612 
-0.004036512896397082 0.008688604329588082 -0.00313185693443337 -0.002386933522192065 -0.0004452759685990147 0.002371243262014557 
-0.000757604064050651 0.01387305015978746 -0.004234082648094445 -0.007793622293918562 -0.001669380695921302 -0.000580600370458544 
-0.002312295728623385 0.01909673110895788 -0.003824652598873499 -0.004028703775659654 -0.001968243908097544 -0.009749180799120757 
-0.001712991959002779 0.009232712043057567 -0.003897351872851119 0.0001398440226730001 -0.0004843830289448153 -0.008515742330944131 
0.005989481369441834 0.00305442149783048 -0.002222980514943267 -0.002983286324013595 -0.001593699458242416 -0.003849034077217296 
-0.004558559946005936 0.00432917023482788 0.004308344710367133 -0.003832602593855592 -0.006362294496854416 0.003753153830399419 
-0.02250111917612359 -0.007515627593641731 0.01038834081631639 -0.007559941719622463 -0.006600505449207834 0.01831183735734712 
-0.008613541922586102 -0.01239323696403366 0.006659165769669038 -0.005680421737395921 -0.003707133295645796 0.01177475632985322 
-0.002642936640803701 -0.01107225457220884 -0.004820302618021338 0.005612292480639667 -0.005390876343339228 0.00900966121632181 
-0.0007147443289871036 -0.003891015221014751 -0.004378840692027599 0.00281873076203039 -0.002996096981795425 0.004047804880795052 
0.0008457869305736475 0.0001755230795389914 -0.0049512894935011 -0.004567407353361712 -0.0006192414517897178 0.004567753496443727 
0.004934030789672646 -0.001957050996203344 -0.005761272542816485 0.0009600942896669858 -0.001720040895511355 -0.0006193891864557218 
0.006562411405062758 0.007692790441313054 -0.009985283398180719 0.003310149172469452 0.0005177048790704507 -0.0098048412456598 
-0.006141901192525162 0.001434668544562583 0.004557782697711376 -0.0002610834312819706 -0.00675674619432069 0.0002239520475360749 
-0.009537048466637499 -0.009184031387440433 0.01262074474594253 -0.003111545295028144 -0.006724384721611533 0.001246708376292692 
-0.007839855270303099 -0.01173836197019917 0.008443989593095329 -0.00205037427227001 -0.005274935559592776 0.008672933826520901 
-0.01145944226452401 -0.01137178382740236 -0.003927294534350129 0.007485859096862702 -0.007218067804553651 0.02112099239407541 
-0.0005568711999423024 -0.003121675494691559 -0.003535727103272827 0.002897238147943197 -0.004238877234841886 0.007835729552415953 
-0.006363514182029868 0.0142289682419657 -0.004377309114159327 -0.00811622963414447 0.002139846558081876 -0.0009046973358070222 
-0.002904045274092605 0.007069294290034447 -0.004945017401994927 -0.004937418710577504 0.004300658409890808 -0.003848821931198249 
0.008778147170320457 0.002052950207264876 -0.0048426157011819 -0.001776206705630315 0.001498803551573996 -0.007821226612447111 
0.00790398472278693 0.0003937035905289781 -0.007327037769977641 0.002462211879002337 -0.0001221830582845339 -0.0006051409536757411 
-0.001877129543596013 -0.007589214177887894 0.001834606523883671 0.005585044520834715 -0.0001667651264937895 0.002668544610638127 
-0.01230719837532879 -0.01135004173065595 0.005101833247335534 0.005121663068456791 -0.008609628124096401 0.01352092846801392 
-0.004942221536530203 -0.01321342512484983 -0.004080253327509329 0.0115750394042167 0.002251224560628085 0.004945727695737744 
-0.01307039080439661 -0.009295548585333307 -0.009984078400319646 0.01119778154796546 0.01803820423251522 0.003671318257501885 
0.005937960544468061 -0.0002925597863926727 -0.008322727064007595 -0.007283878992196803 0.01050625191402133 -0.001020669568352902 
0.01201079122146164 0.01627402805662273 -0.0103312205105604 -0.02352688391750907 0.01028431759273184 -0.002373134866557937 
-0.004613214138865832 -0.001705381979462964 -0.008294360475783831 -2.364540637855517e-05 0.01459801511143851 0.003084732000562128 
-0.009902964051578622 -0.008110902241514052 -0.01036473140623663 0.005999240094362835 0.01739465591991202 0.004882867381970985 
-0.002819345641226074 -0.007510128557473401 -0.0006504644025865513 0.007471205895607777 0.002062403137368101 0.000426355513784456 
-0.0006477534792540049 -0.01138566277493447 0.001226993473334455 0.01122964683544247 -0.003067996154692753 0.0006858149205902784 
-0.008842081893401159 -0.01506240769838848 -0.002498681535701652 0.01236230295098948 -0.009387287290984557 0.01615337623803936 
-0.007174880638838717 -0.02037786161943415 -0.009467935899076555 0.01256079292403241 -0.01051898692948989 0.02617649548971784 
0.009993792012515252 -0.009603557473265772 -0.009951592277691912 0.0006686547761938149 0.004253142622734305 0.002372732671060495 
-0.01164586344638166 0.01082026985326203 -0.01359266458979195 -0.007449868233656415 0.01251152759833285 0.00932781350726058 
-0.004890354369976048 0.008658728108246107 -0.01100947257928356 -3.629861534098112e-05 0.007391175145759184 -9.637991477145313e-05 
0.006592996354054631 0.001514078647336878 -0.006998763973395131 0.001204625326482317 0.005519805139506125 -0.005465179710573816 
-0.0004669076031851907 0.003477742515689708 -0.002511497118157821 -0.0009690137713635731 0.000567183048705001 -0.00159651597147705 
0.0004314656010264423 0.007557166833269312 -0.004442052981781838 -0.001034332907493664 -0.002411632348963571 -0.001128127853403246 
-0.004579185964048558 0.008448123025395028 -0.0019452179964655 -0.0008450798441184738 -0.001169549415947951 0.0001697514912556961 
-0.004503167068727648 0.001290653779839988 0.001001619937712987 0.0001009179000277597 0.003010903460864355 -0.000967825739637904 
-0.00747699516433986 -0.0006382089639617438 -0.00237683771529154 0.004255016534688626 0.003203341970102079 0.001114241119418197 
-0.003982288028455876 0.0008076238119679931 -0.006926974776850133 0.007025586260022373 -0.0004900913330688481 0.002413111981541782 
-0.00298197407117978 0.008078856657794314 -0.004376478641207984 -0.004371924697451159 -0.004643283650903838 0.006335297152669519 
0.0007338588449846446 0.001587526617252545 0.0005151775857506672 -0.005453795771808496 -0.004082806444785368 0.003949863610396706 
-0.0008879614383582642 0.001178973996200382 0.001330146783747758 -0.007107832745029566 -0.005942211741532593 0.004650261232196684 
-0.008313036531104266 0.006931453485903974 -0.001834518601949404 -0.00277560988312588 0.0008558842298439643 0.002725635502325241 
-0.005826915497849243 0.01042488367980784 -0.003237925308729406 -0.001940769932404597 0.0009507246611179108 0.0004591542696064638 
-0.006130752240650338 -0.001047853675228015 0.003361247741342493 -0.002285725270681662 -0.002145795203240252 0.005183569200555226 
-0.003511896054572756 0.005644781240568453 0.0004816565392884093 0.0001962593485579422 -0.003418003608772341 0.0002419850165135376 
0.002661558880267176 0.001203345744122588 -0.002366665249145538 0.003192104542690952 -0.003042650941341958 -0.001537140559199006 
0.001533729397726172 0.009464694940473783 -0.004581131468869291 -0.001635208059463259 -0.002755263735592543 -0.002209420931396663 
0.0001127365324661624 0.01925231117591445 -0.006007467388691223 -0.004679847013538063 -0.002674481053650668 -0.01064906616085819 
-0.001681664547105893 0.01237975232706729 -0.005643283496426771 -0.002946434397483432 0.00312757443463512 -0.01102845870866591 
0.006322270291426022 0.01009168428116648 -0.004046764687689245 -0.003402300991359848 -2.719555644686625e-05 -0.00986938487123625 
0.006635919230951005 0.01584315320973839 -0.003528916199059243 -0.004503125708059968 -0.004867931086548428 -0.01048395758507862 
0.001048312889709217 0.001351233201884887 -0.001692793918241839 0.001822108479766622 -0.001960827022077839 -0.005817905245167691 
0.0002008567494922189 -0.002152466960354462 0.002711889345657882 -0.002678840902582987 -0.0003963971028048094 -0.00329009330675495 
-0.002673421773458076 0.00180034800746615 -0.004853690945886532 0.003736295634473948 -0.001243913369590952 -0.0005430615165752327 
-0.0005804767472313764 -0.001528631209840567 -0.008149708410890947 0.005384523731767827 -0.003836611246648597 0.003566584473059372 
-0.002148120256351948 0.00592253378814058 -0.009117288930980499 -0.00675249640052908 -0.005617895948723605 0.01879369687260172 
0.008287713467444384 0.009981117041843438 -0.0106807634207332 -0.01265248424558406 0.004497718413996425 0.000553858900840794 
0.0061618247556295 0.0160250551931434 -0.01518238011643547 -0.009608676538852213 0.02090093464366627 -0.01894498912641042 
0.004091264857671143 0.0140781575149717 -0.001189736477339005 -0.006690914654429804 0.001774608931545729 -0.01418027362237737 
-0.0048349870424716 0.001019403904818995 0.001037983337728003 0.0007968937434681029 -0.001944679317423523 -0.003323719604730799 
-0.00341184968756292 -0.01648414381933604 0.006374354261169424 -0.002278580735783577 0.004808484249434341 -0.0004435550582260432 
0.0006799439139907246 -0.006322926055798144 -0.003405886392809674 0.001103861487150746 0.00306159776177959 -0.001627737603464283 
0.01897629592113431 -0.002852808700127281 -0.002661585111543027 -0.002510564186438493 -0.005678622187974067 -0.007716067510123846 
0.005862452798351981 0.007091454451529464 -0.003522891490458598 -0.008506321156375772 -0.006584956766165296 0.001606709697548973 
-0.000513350310316092 0.01025318758052366 -0.005814793409277583 -0.005607424552725982 0.0001641025338855354 -0.004653648485919138 
0.009802691987514505 0.008449624636451242 -0.005136074117248229 -0.003275621114080061 0.000767259557353261 -0.00989944856405729 
-0.0007707477553249479 0.0008463065394750667 -0.004605951155483478 -0.002846482062931864 -0.0008457411822205815 0.007434725223252767 
-0.006711532402930539 -0.00996284432786127 0.008723966262595896 -0.006897036136532099 -0.005549881641655606 0.0144086325231913 
-0.00574974855808654 -0.02008324776408341 0.01711587802834723 -0.007692493872640584 -0.008470316436556651 0.008158250436761072 
0.01467702764956772 -0.01655099477344498 -0.00163603130898975 -0.00328731056450786 -0.008303979059860894 0.003413440240504049 
0.02077034916094319 -0.001090887912426704 -0.01473127521179503 0.006743601284699816 -0.006871946888222135 -0.005515330531000563 
0.00199905907452884 0.001629918676472737 -0.007842445681347754 0.00346204685448515 0.002784968672766822 -0.00205684363934283 
-0.007118086978117288 0.009496642124592799 -0.01273044100347581 0.004305649669208713 0.01348695714393225 -0.001530342234043504 
0.0004838531030743402 0.004055645593803497 -0.01181830087034914 -0.005345376172935719 0.03245282736188077 -0.01573867522870702 
-0.006147381276606612 0.004802333877936332 -0.01626797129764224 -0.0002975287157676812 0.03319276846419269 -0.01744672852956175 
0.001925721480316602 0.0006229465915711919 0.003786198307340738 -0.004064179317040839 0.01046076863917772 -0.01166235422003912 
0.006451348369394087 -0.02006532983145326 0.02217304984034357 -0.008240970620633566 -0.008472655794918649 -0.006166281176645739 
0.00385704349095929 -0.02219281949371371 0.009825688517854781 -0.004399231576641595 -0.0004256055642591316 0.004929940201874611 
0.01660198299542101 -0.01404178137150247 -0.007786510117929496 0.007605766562158157 0.003955763314928113 -0.008660946728250107 
0.00863773757224282 -0.007435966971343155 -0.009498263641573752 0.009204399053152512 -0.001682543391816726 -0.0007819233122674654 
-0.02205726498204617 0.009711309240345113 -0.01273971777322714 0.0142103488071797 -0.00404027486660125 0.01729093197706024 
-0.01145597528071636 0.01349266461218125 -0.01325044731733477 -0.004304370751572658 0.005999140400109668 0.01060130860393222 
0.001671381774704201 0.0001828718801529748 -0.01476834648826279 -0.003768669762872713 0.01221361641855515 0.008785237382182278 
0.008753097170130663 0.004949023295518874 -0.003986516110004825 -0.003597653463818751 -0.00404418316063418 -0.00751059808981382 
0.01855409222416192 0.002248774231043052 -0.004385292491561743 -0.00533378605383048 -0.005576299662750369 -0.00887064485678642 
0.004037253092832279 0.009217732658977067 -0.00308155375046543 0.0002412045726021833 -0.00419734937316266 -0.006533894102242017 
-0.006220381654039946 -0.0005309537561625486 -0.002338794365944927 0.00777794450694379 -0.00049490835014612 -0.000279129297049489 
-0.01576102260572314 -0.003493190528521286 0.001993934040780028 0.01066644014778235 -0.002684627186289029 0.0002250832039295659 
-0.005754557203097478 -0.00270632818978989 -0.004893772827356205 0.008175818768713624 -0.001851562533438743 0.002740590790808435 
0.001886940772040406 -0.0007892745376174188 -0.004761095401713793 0.002816001291394297 -0.007357130493409506 0.006131933278299519 
0.01114267627277269 -0.003236009242084558 -0.001626242251422604 -0.003971990499861232 -0.006412939917034973 0.003772694616881905 
0.001967101711513157 0.005035165378337058 -0.004981632973775654 -0.006753936877573652 -0.008343989780338786 0.004987207674243503 
-0.00470678348828058 0.006439375926678209 -0.003620168448060624 -0.001209324780751432 -0.004117667353181103 0.003143221688554593 
-0.00414171085706388 0.002953815424867586 -0.004471162799515038 0.002791357830168833 -0.001982035654012936 0.003663717459938228 
-0.006106938187838264 -0.003309123753245547 -0.007786774350418657 0.01464172183511198 -0.0008002287247581524 0.001492945826592197 
-0.00327162122996225 -9.151770500805902e-05 -0.004547533795536532 0.005470030174752188 -0.0009923392863748213 0.0001644588406515432 
-0.001420559235796846 0.002573413976145304 -0.00213129797577593 -0.0007629072830153202 -0.001551421445796748 0.00219804997820998 
0.004504463311881373 0.004211055792298505 -0.002939335755703776 -0.00172470315426057 -0.003813040749551814 -0.0002449017719516174 
-0.006496586173144253 0.0162372806775547 -0.006033367890153485 -0.003098237559313652 -0.006360821030672926 -0.000465179223141449 
-0.002422611704560413 0.01280074211686401 -0.008619179050508817 -0.001973742428792352 -0.003237025864916787 -0.005157298825956671 
0.00421713842963366 0.005406948325019671 -0.004387447608163955 -0.004482819933271322 -0.003398897978348528 -0.0009301151186495625 
0.01655280775896109 0.01342716070369342 -0.00835717934320012 -0.006103184330459636 -0.008540802396626884 -0.009725366331131306 
0.009310036435046045 0.01888614273185144 -0.01120962067430617 0.004648854306183474 -0.006225663917451416 -0.01023863632212674 
-0.0004127441936630576 -0.000251383469442414 -0.005955035109068934 0.008524266389734539 -0.001962080916727691 -0.004820208880086383 
-0.006252891250478069 0.001648139016649386 -0.005541477447088164 0.0073969255901497 0.0005096041938733204 -0.002131732109493853 
-0.004207755560556962 0.002591500607969525 -0.006125669056177486 0.001039857449519897 -0.002258351784829893 0.00242461301456412 
0.008851886573167104 0.006461043212477233 -0.008264323914586232 -0.01219933733299344 -0.007478501772063005 0.006183844367020705 
0.01448780369931018 0.005429691815313222 -0.01043160246037077 -0.01323195724925746 -0.004285318130332913 0.006965160658034235 
0.01007851500490417 0.003515022738133952 -0.01634060859529722 -0.01643310160194017 0.006342527339909292 0.005924859071463924 
0.004506770545777685 0.01372605535533369 -0.01404621772772931 -0.009482505489728772 0.004063768438285592 -0.001107862618627774 
-0.002315724690017624 0.03143662637097901 -0.01265145538363541 -0.004528031485458394 -0.003808087649774434 -0.00330046213108194 
0.001308260218469704 -0.002530595483754054 -0.002533901204046407 0.003802814288599771 -0.003481015355687135 -0.001595095274028259 
-0.00423716524822238 0.006081553313336375 -0.002054001800893752 -0.0007541966820547462 -0.00383911389314966 0.002056435692968473 
-0.004376659074104984 0.001248722452814449 -0.002604623244335255 -0.001313282661471602 -0.003238807624461249 0.007930444967632008 
0.007918776269335844 0.00281761889875443 -0.006009377581530959 -0.00314084360910505 -0.01071716029246284 0.00749814280371902 
0.01965480413822315 0.002488409729728546 -0.007958692176327034 -0.009702444477619915 -0.01224663055020699 0.003331196492485239 
0.01393197094450686 0.001654527533803923 -0.005076892246664237 -0.00658668431839846 -0.000747976091923793 -0.003903479524744418 
-0.002608147136600017 -0.001676975358818707 -0.007799426104081272 -0.004531201123698063 0.01450544976496587 0.007688522631401021 
-0.0125025453667581 -0.003073916452651856 -0.006600689843821243 -0.005242218991155534 0.007914999984791957 0.01916378130916765 
-0.01352889783052497 -0.009663390766327802 -0.000223331561047282 -0.004351377675023327 0.004276326881176043 0.01528474641004192 
-0.004306330286044818 -0.01635365155521927 -0.002653854921586031 0.005684895998972271 0.0008949390885457248 0.005609442885231548 
-0.008422550818201729 -0.01671295357130473 -0.003440175146685704 0.02318079849494034 -0.0007850653938415832 -0.005016709835974421 
-0.009136297808090249 -0.0318695116967113 -0.00836799299320482 0.03708212234522573 -0.002877143128788056 -0.005108943698062881 
-0.008790693013756115 -0.0302898138588338 -0.01465294220102261 0.03646991716722985 0.002845736518761889 -0.006878107231646191 
0.0004696087701596572 -0.006840568518866447 0.01375220638402416 0.002187659695967162 0.000224861885624608 -0.01145420037959085 
0.01070552247354744 -0.000674788992641912 -0.007331470865414107 -0.001414523284923323 0.01040888485916261 -0.005778566226961304 
0.001608544465249991 -0.0097594134749326 0.003274681598933536 -0.007390320894817075 0.004421864681315129 0.005017292393844974 
-0.008972602255171238 -0.007830360109149571 0.004844889412095109 -0.009267770780056207 0.007515379279115817 0.007073904918792755 
-0.01133992843112529 0.006679470977774376 -0.001427585979511335 -0.01317887484818693 0.01360878774872245 0.002435139985801035 
0.00924246685923243 0.004551514281926003 -0.01519607347911131 -0.004237153199010202 0.008715219444341435 -0.003422800037338945 
-0.01230048252999855 0.0005970917296750073 -0.008464093099329238 0.01233223080031988 0.00557600298385076 -0.002569587788408303 
-0.01621388449354993 0.01558440689029541 -0.003638770489886666 0.008976629477279842 -0.004801207336625452 -0.00476494409061371 
0.003422821892536637 0.009560461165540901 -0.005913846947406827 0.0003112200542848645 -0.006850137174040855 0.001876233117206584 
0.0001537934650912991 0.0009251243011511007 -0.009310920086203271 -0.001642303031209062 0.007809766035949745 0.003515339722958647 
0.006691334430863494 0.002732363183932067 -0.002354136346941488 -0.003525959816619565 -0.001876541967872761 -0.003614488744205529 
-0.004584873423212723 0.003349890725087301 0.004805555974831823 -0.004823880152879768 -0.006906467637666357 0.005530756629130513 
-0.02133892190065355 -0.008420490940523327 0.01099059080332897 -0.008031764493029709 -0.007200389288751008 0.01998997751579195 
-0.006799966443042752 -0.01136549978980411 0.006233922463195639 -0.006351586446422085 -0.003993631558047192 0.01070927266156247 
-0.001439156670045017 -0.008782773431041098 -0.003389945201281519 0.002100119712921486 -0.005010994765516646 0.007723506844477242 
-0.0002157592672495484 -0.003322812178314388 -0.003996787330461122 0.002009038151767565 -0.002902198428262926 0.003496600665881308 
0.001683287047301523 0.001039236466451909 -0.004807735585249712 -0.005112743906130823 -0.0009267940061411964 0.003483920578069411 
